0.01143996324390173,
0.02724457159638405,
0.0026173985097557306,
0.033457327634096146,
-0.03945976123213768,
0.03555420786142349,
-0.04173563793301582,
0.02152937650680542,
0.03171663358807564,
-0.021842097863554955,
-0.010132590308785439,
-0.013945626094937325,
0.006374177988618612,
-0.0357247069478035,
-0.026077523827552795,
-0.011399561539292336,
-0.033310387283563614,
-0.011354431509971619,
-0.007910162210464478,
0.010206055827438831,
-0.03136986121535301,
-0.03489633649587631,
-0.03047223761677742,
0.03179264813661575,
-0.054811786860227585,
-0.048065364360809326,
-0.046440403908491135,
0.02773318439722061,
-0.05160757526755333,
0.0021828904282301664,
-0.0050192284397780895,
-0.03094705194234848,
0.03558310121297836,
-0.024523910135030746,
0.00783811416476965,
0.014215445145964622,
-0.013672747649252415,
-0.0003217639459762722,
-0.02772887796163559,
-0.015572285279631615,
-0.04393437132239342,
0.007452061865478754,
-0.009351510554552078,
0.028837958350777626,
-0.004315131809562445,
0.01379980705678463,
0.023839572444558144,
0.06445780396461487,
-0.03336425498127937,
-0.003627082798629999,
-0.03366398811340332,
-0.012812450528144836,
0.011904390528798103,
0.005613897927105427,
0.010772226378321648,
-0.025396013632416725,
0.032775089144706726,
-0.028683194890618324,
-0.015150927938520908,
-0.009373902343213558,
0.0037183398380875587,
0.007864551618695259,
-0.015118603594601154,
0.05209657922387123,
0.0073998840525746346