0.007385933771729469,
0.00550546171143651,
0.02487826906144619,
0.007181050721555948,
-0.014436887577176094,
-0.009617816656827927,
0.006156335584819317,
0.010965825989842415,
0.011019864119589329,
0.020827675238251686,
0.013256216421723366,
0.003933445084840059,
0.013883550651371479,
-0.026762157678604126,
0.018437478691339493,
-0.013691125437617302,
0.008971316739916801,
0.009649026207625866,
0.036864690482616425,
-0.006095249205827713,
0.03481445088982582,
0.02125588059425354,
0.011168183758854866,
0.013397776521742344,
-0.023532357066869736,
0.007605738937854767,
0.010490107350051403,
-0.0197072122246027,
0.005435728468000889,
0.0009830801282078028,
-0.0013148272410035133,
-0.0038368436507880688,
0.0016930270940065384,
0.006744014099240303,
0.006049922201782465,
-0.0030441819690167904,
0.0198063962161541,
-0.012861338444054127,
0.016410838812589645,
-0.0047587137669324875,
-0.018718235194683075,
-0.018771667033433914,
0.012727699242532253,
-0.007346596568822861,
0.013145158998668194,
0.0049598379991948605,
0.0013474596198648214,
0.0161418654024601,
-0.0007755194674246013,
0.01785711571574211,
-0.0013888151152059436,
-0.0019190773600712419,
-0.004349914845079184,
-0.008128080517053604,
0.0017514838837087154,
0.00038294249679893255,
-0.006110947113484144,
-0.005369056481868029,
0.021261153742671013,
0.0031890920363366604,
0.0021373999770730734,
0.01802113652229309,
-0.004165054764598608,
-0.02399209327995777,
-0.008595529943704605,
0.0033877850510179996,
-0.0025022472254931927,
-0.013178638182580471,
0.0238375011831522,
0.006392333190888166,
0.012554844841361046,
-0.008518200367689133,
0.0109513895586133,
-0.015091284178197384,
0.019070332869887352,
0.007134314626455307,
-0.015482628718018532,
-0.010986733250319958,
0.011357360519468784,
-0.014253581874072552,
-0.023775914683938026,
0.002328521804884076,
0.011916018091142178,
-0.029908543452620506