-0.016418667510151863,
-0.13941837847232819,
-0.03603273630142212,
0.20195020735263824,
0.03276055306196213,
0.20168492197990417,
0.06301800906658173,
0.14458778500556946,
0.2841099202632904,
0.02146431803703308,
0.2219066619873047,
0.03807520866394043,
0.18173566460609436,
0.2838287949562073,
-0.19611038267612457,
-0.06803610175848007,
0.13034728169441223,
-0.25016871094703674,
0.2316655069589615,
-0.212657630443573,
0.26194170117378235,
-0.12311955541372299,
0.127351313829422,
-0.20282074809074402,
-0.17051318287849426,
0.03426629677414894,
0.2484690099954605,
-0.2853056788444519,
-0.11033833026885986,
-0.18229404091835022,
0.058602843433618546,
0.19436481595039368,
0.32483795285224915,
0.21514330804347992,
0.18889188766479492,
0.27492964267730713,
0.31242141127586365,
-0.034484267234802246,
-0.041782815009355545,
0.21427442133426666,
-0.1561431884765625,
-0.07588324695825577,
-0.1883491426706314,
0.2547733783721924,
0.3137601315975189,
0.13781195878982544,
-0.07232743501663208,
0.13458023965358734,
-0.12545810639858246,
0.202389195561409,
0.18338555097579956,
-0.1032184287905693,
0.18443262577056885,
0.031232185661792755,
-0.09533684700727463,
-0.0007085846154950559,
-0.1690322458744049,
-0.19241110980510712,
0.11231818050146103,
0.05452046915888786,
-0.003127667121589184,
0.10192300379276276,
-0.025952007621526718,
-0.16496306657791138,
-0.2332797795534134,
0.3431875705718994,
-0.20906049013137817,
-0.23378334939479828,
0.1535864770412445,
0.07789208739995956,
0.15682512521743774,
-0.2296135276556015,
-0.3527225852012634,
-0.08504919707775116,
-0.2837523818016052,
0.2539355456829071,
-0.2152865082025528,
-0.13035839796066284,
-0.1293260008096695,
-0.1405235379934311,
0.2081650197505951,
-0.1104697436094284,
0.1386716365814209,
-0.09171922504901886,
-0.12190116196870804,
0.19523164629936218,
-0.04874841868877411,
-0.20811952650547028,
-0.07149269431829453,
-0.16600416600704193,
-0.30825892090797424,
0.11098815500736237,
0.12175527215003967,
0.3638152480125427,
0.3524446487426758,
0.10493936389684677,
0.16574043035507202,
0.0653245598077774,
0.04082149267196655,
0.15065109729766846,
-0.042013783007860184,
0.07794179022312164,
0.35387030243873596,
-0.21341323852539062,
0.03801388293504715,
0.33915793895721436,
-0.16032028198242188,
0.1475089192390442,
-0.3704909682273865,
0.03155670315027237,
0.11087280511856079,
-0.28946036100387573,
-0.256401926279068,
-0.17320357263088226,
0.12237641215324402,
-0.06353449821472168,
-0.2887546718120575,
-0.26431629061698914,
-0.22477146983146667,
-0.1807737648487091,
0.203196182847023,
-0.23034878075122833,
-0.02397766150534153,
-0.02076784521341324,
-0.28687459230422974,
-0.09077510237693787,
-0.05767133831977844,
-0.204091414809227,
0.22602669894695282,
0.22146309912204742,
0.14089952409267426,
0.03976353630423546,
0.25542762875556946,
0.25638842582702637,
0.14631031453609467,
0.2863265872001648,
0.2725934386253357,
-0.21121260523796082,
0.24374578893184662,
-0.0006571471458300948,
-0.20054781436920166,
0.22413726150989532,
-0.2120179831981659,
0.14749886095523834,
-0.17154692113399506,
0.2607727348804474,
-0.07706250995397568,
-0.1702856421470642,
-0.20749662816524506,
0.14112655818462372,
0.07241867482662201,
-0.04374166950583458,
0.10351608693599701,
-0.32333430647850037,
0.0357649140059948,
-0.02251558192074299,
-0.01767721399664879,
-0.13562555611133575,
0.24434024095535278,
-0.12228375673294067,
0.07237125933170319,
0.2157762348651886,
0.011971615254878998,
0.3235706388950348,
-0.09660690277814865,
-0.2635621428489685,
0.2508925199508667,
-0.010224818252027035,
-0.21501216292381287,
-0.3447887599468231,
-0.015323050320148468,
-0.11403132230043411,
0.1705137938261032,
0.10016679018735886,
0.14830943942070007,
-0.11538678407669067,
-0.15692946314811707,
0.34966209530830383,
-0.25014275312423706,
0.15079990029335022,
0.2082969844341278,
-0.2508041262626648,
0.014040700159966946,
0.005579087417572737,
-0.23742565512657166,
0.3069550395011902,
0.16099722683429718,
0.1987277716398239,
-0.16049546003341675,
0.3372185528278351,
-0.07733701169490814,
0.2712594270706177,
-0.10710614174604416,
-0.06679302453994751,
-0.2148762196302414,
-0.3086567223072052,
-0.0462978258728981,
0.0400412417948246,
0.16609147191047668,
0.018307002261281013,
-0.1436123251914978,
-0.3267933130264282,
-0.1174258142709732,
-0.10234008729457855,
0.07449832558631897,
0.09039580076932907,
-0.16096222400665283,
0.032610997557640076,
0.2159782350063324,
0.09586469829082489,
0.022487269714474678,
-0.19814333319664001,
0.17453362047672272,
-0.13808418810367584,
-0.18265098333358765,
0.04953664168715477,
-0.2716623842716217,
-0.41716107726097107,
0.1454503983259201,
-0.20330175757408142,
-0.16483378410339355,
0.3285048007965088,
0.1629520058631897,
0.1186605766415596,
0.05230030417442322,
-0.15893112123012543,
0.02546573057770729,
0.15987080335617065,
-0.30734655261039734,
-0.29408717155456543,
-0.03475993871688843,
-0.21520604193210602,
-0.31344929337501526,
0.10401353240013123,
0.15268534421920776,
0.02604447677731514,
-0.13877703249454498,
-0.4238033592700958,
-0.10496082156896591,
0.19671757519245148,
-0.16866354644298553,
0.1031571477651596,
0.2168264389038086,
-0.14561688899993896,
0.15238694846630096,
0.36607828736305237,
0.13886693120002747,
-0.1767544001340866,
-0.14888574182987213,
-0.040929004549980164,
0.16287803649902344,
-0.22508324682712555,
0.2688630521297455,
-0.14008422195911407,
0.004550256300717592,
0.08514280617237091,
-0.11986824870109558,
-0.0900224968791008,
-0.01591515727341175,
0.2901495099067688,
-0.18088077008724213,
0.20158088207244873,
-0.2572287321090698,
0.11352767050266266,
0.26885372400283813,
0.27094340324401855,
-0.07890036702156067,
0.08372987061738968,
-0.041137002408504486,
0.004336990416049957,
0.0016574508044868708,
-0.08676955103874207,
-0.3078487515449524,
-0.16285239160060883,
0.12236492335796356,
-0.18607713282108307,
-0.11388347297906876,
0.30369502305984497,
0.04069254919886589,
0.33143794536590576,
-0.2351878136396408,
0.06488264352083206,
-0.05120139941573143,
-0.058933861553668976,
-0.1622592657804489,
0.08308815956115723,
0.01133175753057003,
0.14168915152549744,
-0.1922137588262558,
0.25325995683670044,
-0.10281910747289658,
-0.1253589540719986,
-0.34091904759407043,
-0.15453921258449554,
-0.05675911158323288,
0.14895401895046234,
-0.09289996325969696,
-0.2484833300113678,
-0.2218848615884781,
-0.14036895334720612,
-0.11061552166938782,
-0.17651355266571045,
0.14005567133426666,
-0.08301977813243866,
-0.26045510172843933,
0.1264026015996933,
-0.128626748919487,
-0.053998421877622604,
0.183741495013237,
-0.2759541869163513,
-0.002469883533194661,
0.15600553154945374,
0.0339333675801754,
-0.1577417254447937,
-0.192306250333786,
-0.059832677245140076,
0.319429486989975,
-0.2596786916255951,
-0.22728730738162994,
0.33461448550224304,
0.1464463323354721,
0.16284659504890442,
0.05044614523649216,
0.1713828146457672,
0.33791232109069824,
-0.06413383036851883,
-0.20079955458641052,
0.2304987609386444,
-0.19989605247974396,
0.2976382076740265,
-0.1337609887123108,
-0.1952667087316513,
0.1874682754278183,
0.028689192607998848,
-0.30241408944129944,
-0.2512238919734955,
0.07600361108779907,
0.218849778175354,
0.14184634387493134,
0.03317708894610405,
-0.05839262530207634,
-0.09849859029054642,
-0.1732451617717743,
0.010712314397096634,
0.1469983011484146,
0.3386288583278656,
0.21659979224205017,
0.18680377304553986,
-0.3323540985584259,
0.11120469123125076,
0.19802486896514893,
-0.1406271606683731,
-0.04092679172754288,
-0.05225532874464989,
-0.2652464210987091,
0.2500799894332886,
0.2606004774570465,
-0.258319616317749,
0.25159138441085815,
-0.16231602430343628,
-0.1813122183084488,
0.1846601366996765,
-0.39341315627098083,
0.2104794979095459,
-0.11098545044660568,
-0.15100936591625214,
-0.0006397701799869537,
0.19987832009792328,
0.12903425097465515,
0.15067633986473083,
0.15567642450332642,
0.2836531102657318,
-0.32559382915496826,
0.0743476152420044,
0.32931771874427795,
-0.21696308255195618,
-0.19156408309936523,
0.08386212587356567,
-0.039663318544626236,
-0.2540314793586731,
0.13872523605823517,
-0.103155717253685,
0.09029974788427353,
-0.09932055324316025,
-0.15311896800994873,
0.09232497960329056,
0.21488513052463531,
-0.11311433464288712,
0.2045459747314453,
0.05688394978642464,
-0.2101813107728958,
-0.033457040786743164,
-0.09225902706384659,
-0.25015562772750854,
0.21556711196899414,
0.1783304363489151,
-0.039280377328395844,
0.09324623644351959,
0.06597115844488144,
0.25357234477996826,
-0.2571614682674408,
0.20555756986141205,
-0.22378483414649963,
0.1460435390472412,
0.21253734827041626,
-0.1480105072259903,
-0.08263227343559265,
-0.2412727326154709,
-0.2636549174785614,
0.12977778911590576,
0.008149622939527035,
-0.23166583478450775,
0.32029664516448975,
-0.2968115210533142,
-0.32855933904647827,
0.012963270768523216,
0.17852970957756042,
-0.22166922688484192,
0.04898674041032791,
-0.10440030694007874,
0.06545282155275345,
0.08113574981689453,
0.2095211297273636,
0.2265825867652893,
0.10512042045593262,
0.144334077835083,
0.032813746482133865,
-0.0914253443479538,
0.089408740401268,
0.18947982788085938,
-0.31956300139427185,
0.1333031952381134,
0.05855895206332207,
0.2621016800403595,
-0.24185234308242798,
-0.3029412031173706,
0.038032397627830505,
-0.0845404788851738,
-0.12232550978660583,
-0.0025210168678313494,
0.021772775799036026,
-0.02453819289803505,
-0.10585807263851166,
-0.1233847513794899,
0.08259870857000351,
0.07276731729507446,
0.10565603524446487,
0.027592472732067108,
0.07756209373474121,
-0.04653308913111687,
-0.16464434564113617,
0.21096980571746826,
0.26213520765304565,
-0.06868142634630203,
-0.0046209245920181274,
0.24540521204471588,
-0.06433077156543732,
0.29464706778526306,
-0.2982444167137146,
-0.21197323501110077,
-0.2885926365852356,
-0.31542837619781494,
-0.19397598505020142,
0.14291054010391235,
0.001404638634994626,
-0.06952403485774994,
0.027435971423983574,
0.01357422024011612,
-0.09136978536844254,
0.2451944500207901,
-0.02913953922688961,
0.03823480010032654,
0.054861512035131454,
-0.060499656945466995,
0.009681196883320808,
-0.22642293572425842,
0.1367240995168686,
-0.17251309752464294,
0.018737342208623886,
0.014963710680603981,
0.2542491853237152,
-0.20015186071395874,
0.25853654742240906,
-0.14002735912799835,
-0.2582034766674042,
0.32841014862060547,
-0.18571515381336212,
-0.08320052176713943,
0.1293421983718872,
-0.06993059813976288,
-0.09348488599061966,
-0.13980992138385773,
0.3019014596939087,
-0.035277385264635086,
-0.272876113653183,
0.23946639895439148,
-0.22008036077022552,
0.3029666244983673,
-0.24911370873451233,
-0.2226535975933075,
0.2531462609767914,
0.34333834052085876,
0.2499052733182907,
-0.16655531525611877,
0.13143137097358704,
-0.19772620499134064,
0.08599765598773956,
-0.08613880723714828,
-0.15059149265289307,
0.2788158357143402,
0.26015451550483704,
-0.28026941418647766,
-0.13458552956581116,
0.2551595866680145,
0.17377497255802155,
-0.06638467311859131,
-0.1389770358800888,
-0.1450544148683548,
-0.1536308377981186,
-0.08596483618021011,
0.15500792860984802,
-0.184073805809021,
-0.05355222895741463,
0.2524460554122925,
-0.1592143476009369,
-0.19170120358467102,
0.3398049473762512,
-0.24959135055541992,
0.2723532021045685,
0.03500887379050255,
-0.05681246146559715,
0.1907462775707245,
-0.251956582069397,
0.1393098682165146,
-0.19849897921085358,
0.04446394369006157,
-0.23731529712677002,
-0.007001720834523439,
0.031165268272161484,
-0.035199590027332306,
-0.15072521567344666,
0.3477078974246979,
0.3969382345676422,
-0.15465861558914185,
0.308840811252594,
-0.052270665764808655,
-0.046632319688797,
0.18035933375358582,
-0.13440494239330292,
0.09418109804391861,
-0.09526356309652328,
-0.2583061456680298,
0.05444120615720749,
0.2660149931907654,
0.10355851799249649,
0.15921449661254883,
0.10577038675546646,
-0.32401490211486816,
-0.08890192955732346,
0.24896229803562164,
0.15502378344535828,
-0.13655471801757812,
-0.049703340977430344,
-0.07319707423448563,
0.2081695944070816,
-0.2693161070346832,
-0.208134725689888,
-0.2281547486782074,
0.16282305121421814,
0.3318984806537628,
0.13833798468112946,
0.2141304910182953,
0.13689538836479187,
0.0666254460811615,
-0.17066970467567444,
0.13674502074718475,
-0.1670859009027481,
-0.10880044847726822,
-0.17902757227420807,
0.23424091935157776,
-0.07571674883365631,
-0.16796496510505676,
0.11779127269983292,
0.30140140652656555,
0.09890678524971008,
0.02800935134291649,
-0.28153955936431885,
-0.11171343922615051,
-0.3949679136276245,
-0.14848290383815765,
0.3681057393550873,
0.18836398422718048,
-0.2356330156326294,
-0.018065068870782852,
-0.431328147649765,
-0.2658286392688751,
0.15865620970726013,
0.25473925471305847,
0.03266015276312828,
0.2004195600748062,
-0.14055971801280975,
-0.2752244174480438,
-0.22020407021045685,
-0.29522809386253357,
0.2001911848783493,
-0.1627347469329834,
-0.1265806406736374,
0.16154420375823975,
0.16136988997459412,
-0.13377158343791962,
-0.28374651074409485,
-0.24511784315109253,
0.010923354886472225,
-0.32750555872917175,
0.2900870740413666,
0.10805320739746094,
-0.26848840713500977,
0.22117991745471954,
0.22161927819252014,
-0.2478480488061905,
-0.15924322605133057,
-0.12512603402137756,
-0.05051209777593613,
-0.2600418031215668,
-0.20272891223430634,
0.2514376938343048,
-0.22836944460868835,
0.3601911962032318,
0.2914172112941742,
0.00042406536522321403,
0.11766014248132706,
0.32403919100761414,
0.028075048699975014,
0.09271964430809021,
0.03305940702557564,
-0.014604718424379826,
-0.08276176452636719,
0.0784221664071083,
-0.005649415776133537,
0.2392043024301529,
0.12067846953868866,
0.2585817575454712,
-0.26895850896835327,
-0.032185304909944534,
0.1821339875459671,
-0.15206395089626312,
-0.18256321549415588,
-0.08841270208358765,
0.011988451704382896,
-0.01536600012332201,
-0.2698623239994049,
0.09499026089906693,
0.07787586003541946,
-0.10531967878341675,
0.2864908277988434,
0.03925701975822449,
0.11399514973163605,
-0.15377505123615265,
0.13244211673736572,
0.1685469001531601,
-0.15078048408031464,
0.14276382327079773,
-0.1789945513010025,
0.23540833592414856,
0.1387643963098526,
-0.17148329317569733,
-0.22844015061855316,
-0.13112914562225342,
0.19913779199123383,
0.1136631965637207,
-0.043049558997154236,
-0.11842989176511765,
-0.02490609511733055,
0.03234538063406944,
-0.061787936836481094,
-0.11276630312204361,
-0.2120445817708969,
0.11676819622516632,
-0.12679727375507355,
0.20667721331119537,
0.09415765106678009,
0.29783859848976135,
0.0880185067653656,
0.11800645291805267,
-0.36624205112457275,
-0.09460165351629257,
0.0472431406378746,
-0.27291297912597656,
0.07576009631156921,
-0.04012928903102875,
0.1874290555715561,
0.19909286499023438,
-0.14141744375228882,
-0.04563251882791519,
0.23917703330516815,
-0.2507918179035187,
-0.3213302493095398,
0.2957727313041687,
0.20822428166866302,
-0.30136755108833313,
-0.3266710638999939,
-0.23501691222190857,
-0.17346861958503723,
-0.35884544253349304,
-0.0619332455098629,
0.015549267642199993,
0.20799194276332855,
0.32249024510383606,
-0.1825389266014099,
0.0733325183391571,
-0.14800892770290375,
-0.2547823488712311,
0.3234597444534302,
0.0397985614836216,
0.0426260381937027,
0.2630400061607361,
-0.004252870567142963,
0.22418847680091858,
-0.07549850642681122,
0.3482034504413605,
0.055836256593465805,
0.026319045573472977,
0.1810859888792038,
0.08408114314079285,
-0.011810246855020523,
0.19386039674282074,
0.0006179812480695546,
0.04560203105211258,
-0.1818748116493225,
-0.12098752707242966,
0.31528592109680176,
0.1896088719367981,
0.14505761861801147,
-0.12362340837717056,
-0.08379054814577103,
0.3263767659664154,
0.23911245167255402,
0.06658121943473816,
0.012827501632273197,
0.20076903700828552,
0.2012065201997757,
0.20121751725673676,
-0.02227492444217205,
-0.3677501082420349,
-0.05573313310742378,
-0.33235594630241394,
0.049583550542593,
0.18057219684123993,
-0.0901949480175972,
0.23892326653003693,
-0.19085197150707245,
-0.28352901339530945,
0.13576990365982056,
0.110520139336586,
-0.38534802198410034,
-0.26741907000541687,
0.11364015191793442,
-0.3258451521396637,
0.034308288246393204,
0.1546478271484375,
-0.23325802385807037,
0.0938556045293808,
-0.22467760741710663,
-0.04376271367073059,
-0.24317112565040588,
-0.22045530378818512,
-0.21125786006450653,
0.06265521049499512,
0.19376914203166962,
-0.22761505842208862,
-0.04685712978243828,
0.26659104228019714,
0.2710020840167999,
-0.1666439175605774,
0.14227019250392914,
0.29186341166496277,
0.23787038028240204,
0.023656627163290977,
0.27199745178222656,
-0.36473897099494934,
-0.20961548388004303,
-0.21889150142669678,
-0.06253404170274734,
-0.09976721554994583,
-0.22832287847995758,
0.2325923889875412,
-0.018970610573887825,
-0.08222271502017975,
0.09382952749729156,
-0.16870315372943878,
0.09851162135601044,
0.1789926290512085,
0.21262210607528687,
0.24481917917728424,
-0.28552207350730896,
0.2718998193740845,
-0.026619993150234222,
-0.19057728350162506,
-0.1748328059911728,
0.2158525288105011,
-0.0925266295671463,
0.1660887598991394,
-0.14349325001239777,
0.12519700825214386,
-0.06528405845165253,
-0.38744428753852844,
0.2978243827819824,
-0.3328949809074402,
0.007683995645493269,
-0.08273647725582123,
-0.053393132984638214,
-0.2053641378879547,
0.13093535602092743,
0.29358264803886414,
0.08777157962322235,
-0.014051160775125027,
0.1658666580915451,
0.14456085860729218,
0.19138969480991364,
0.23964810371398926,
0.19926516711711884,
-0.15533168613910675,
0.03538031876087189,
-0.003240209072828293,
0.08887279778718948,
0.13612118363380432,
0.08460468053817749,
0.181221604347229,
0.18294721841812134,
-0.247502401471138,
-0.3031252324581146,
0.14335758984088898,
0.2613135874271393,
0.17216996848583221,
0.2648194134235382,
0.11766662448644638,
0.042217329144477844,
0.13701584935188293,
-0.30172058939933777,
0.259006530046463,
-0.08173128962516785,
-0.042925089597702026,
0.28162530064582825,
0.01855512522161007,
0.10627395659685135,
-0.2732154130935669,
0.08555000275373459,
0.22332000732421875,
-0.17787879705429077,
0.18135884404182434,
0.12253370881080627,
-0.15605393052101135,
0.21823133528232574,
0.07269115000963211,
0.2027406394481659,
0.16096940636634827,
-0.2533554434776306,
-0.17191168665885925,
0.1900753378868103,
-0.07507456839084625,
0.10279057919979095,
0.35853204131126404,
0.1566033512353897,
-0.005073692183941603,
-0.16736719012260437,
0.17326246201992035,
0.06371977180242538,
-0.25480738282203674,
0.3364889621734619,
-0.16257059574127197,
-0.1295921504497528,
0.03744722530245781,
-0.02782791294157505,
-0.1083904430270195,
0.09967104345560074,
0.28038865327835083,
0.21646332740783691,
-0.12242786586284637,
0.06630602478981018,
-0.21958816051483154,
-0.24659009277820587,
0.05270115286111832,
0.29293093085289,
0.17549481987953186,
-0.07742612063884735,
-0.14760540425777435,
0.29425424337387085,
0.1266794055700302,
-0.042843062430620193,
-0.27646055817604065,
-0.2911718189716339,
-0.19423502683639526,
-1.4236884453566745e-06,
-0.0033363818656653166,
-0.315218448638916,
-0.28129664063453674,
0.0788663700222969,
-0.2109377235174179,
0.20051418244838715,
0.049148574471473694,
-0.1080549955368042,
0.006465227343142033,
0.1533662974834442,
0.017716210335493088,
0.0428849421441555,
0.32529008388519287,
0.1971389502286911,
-0.24383226037025452,
0.21193525195121765,
0.16559278964996338,
0.15442222356796265,
-0.19760988652706146,
0.2489442676305771,
-0.13343527913093567,
-0.07854293286800385,
-0.06010456755757332,
0.07447059452533722,
0.16123907268047333,
-0.3138364255428314,
-0.07627054303884506,
-0.32750022411346436,
-0.07567974925041199,
-0.1677822768688202,
0.42937126755714417,
-0.3394778072834015,
-0.32694298028945923,
-0.17930001020431519,
0.3548700511455536,
-0.08099155873060226,
-0.052569180727005005,
0.06785552203655243,
-0.13719512522220612,
0.05885378271341324,
-0.0007322910241782665,
0.1906285285949707,
0.26267117261886597,
-0.14462196826934814,
-0.1407683789730072,
0.3294578790664673,
0.23494824767112732,
-0.025970062240958214,
-0.24869880080223083,
-0.21263332664966583,
0.31604692339897156,
0.09083937108516693,
-0.031286075711250305,
0.05822944641113281,
0.35942140221595764,
-0.2284497171640396,
-0.4229726791381836,
-0.4355800747871399,
0.13267964124679565,
-0.22295919060707092,
0.2502650022506714,
0.05524904653429985,
-0.2988012135028839,
-0.1707448661327362,
0.23401136696338654,
0.0048784734681248665,
-0.143574059009552,
-0.045043427497148514,
-0.038145050406455994,
-0.17140012979507446,
-0.3128022849559784,
-0.04053317755460739,
-0.08998133987188339,
-0.13601066172122955,
-0.08903484791517258,
0.2310839742422104,
0.12821000814437866,
0.03182724863290787,
-0.26883769035339355,
-0.13510380685329437,
-0.14278025925159454,
-0.09538792818784714,
0.03262487053871155,
-0.07195334136486053,
0.08142191171646118,
0.14025169610977173,
-0.03571527451276779,
0.1224500834941864,
0.010303511284291744,
-0.24549081921577454,
-0.05731203779578209,
-0.3244962692260742,
0.009629826992750168,
0.17329007387161255,
0.1280805766582489,
0.33439210057258606,
-0.09963173419237137,
0.352767676115036,
0.2359493523836136,
-0.01460199523717165,
0.07010696828365326,
0.13168039917945862,
-0.09957226365804672,
-0.07932562381029129,
0.24376845359802246,
-0.015595398843288422,
0.23870687186717987,
0.23822414875030518,
-0.1871737837791443,
0.11524804681539536,
0.11099840700626373,
0.17176231741905212,
0.21229708194732666,
-0.28235429525375366,
0.45879971981048584,
0.11362074315547943,
-0.18138404190540314,
0.3430771827697754,
0.24820064008235931,
0.16063351929187775,
-0.013871703296899796,
0.2363298237323761,
0.1817106455564499,
-0.09001267701387405,
0.28557947278022766,
-0.06417360156774521,
-0.15749336779117584,
0.10122212022542953,
0.20234595239162445,
0.19537121057510376,
-0.17799587547779083,
-0.05673188716173172,
0.2775525152683258,
0.24385453760623932,
-0.08094896376132965,
0.12528248131275177,
0.032508429139852524,
-0.04859732836484909,
-0.21877045929431915,
0.1829322725534439,
-0.08901328593492508,
0.10299276560544968,
-0.22311708331108093,
0.2300596982240677,
0.1626131236553192,
-0.24990969896316528,
0.22781915962696075,
-0.09201543778181076,
-0.23068445920944214,
0.2768358886241913,
0.34608039259910583,
0.18614089488983154,
-0.014721614308655262,
0.3119482100009918,
0.16716010868549347,
0.24743269383907318,
-0.17007017135620117,
0.1082824319601059,
-0.2211044430732727,
0.16312001645565033,
0.23326775431632996,
0.00520509947091341,
-0.055609818547964096,
0.22486884891986847,
0.16716688871383667,
-0.11795753240585327,
-0.292547345161438,
-0.34611421823501587,
-0.22552397847175598,
0.13265836238861084,
0.09797512739896774,
0.13726164400577545,
-0.182638019323349,
0.3264246881008148,
0.05432397499680519,
-0.16497771441936493,
0.029075510799884796,
-0.2872007191181183,
0.2711487412452698,
0.2430899441242218,
-0.11829464882612228,
-0.15432889759540558,
-0.2937489151954651,
0.26639437675476074,
-0.1616286337375641,
0.11838144063949585,
-0.016597945243120193,
0.11848841607570648,
-0.1872241050004959,
0.07512150704860687,
-0.11545073240995407,
-0.020337067544460297,
-0.2714013457298279,
0.23789642751216888,
-0.23044219613075256,
0.2327219843864441,
0.2558441162109375,
0.12356643378734589,
0.05653201416134834,
-0.11550971120595932,
0.02092457190155983,
0.2588326632976532,
0.0439005121588707,
-0.26459550857543945,
0.13896691799163818,
0.10146259516477585,
-0.13288678228855133,
-0.11743704974651337,
0.2175058275461197,
0.25109538435935974,
0.08525356650352478,
-0.31026747822761536,
-0.15036961436271667,
-0.0194694921374321,
-0.23500534892082214,
0.2532883286476135,
0.09408340603113174,
0.2828095853328705,
0.1161801815032959,
0.23188093304634094,
-0.09521099925041199,
0.10845620930194855,
0.005273140501230955,
0.013279976323246956,
-0.31745627522468567,
-0.17692331969738007,
-0.04067663103342056,
0.09237293899059296,
-0.058071888983249664,
0.3103708326816559,
-0.24985621869564056,
0.08076050132513046,
-0.13934972882270813,
-0.20261088013648987,
0.20796199142932892,
0.21559502184391022,
0.3661856949329376,
0.3186999261379242,
-0.0846790000796318,
-0.12353065609931946,
0.09625108540058136,
-0.20755784213542938,
-0.08846985548734665,
-0.1315222829580307,
-0.17754952609539032,
0.05806752294301987,
-0.05065644532442093,
0.006131121888756752,
-0.0658482238650322,
0.09806562960147858,
-0.34031105041503906,
-0.22595849633216858,
-0.3122924566268921,
-0.2841871976852417,
0.0736904889345169,
-0.2620982527732849,
-0.042747121304273605,
0.2981817126274109,
-0.20705479383468628,
0.14125679433345795,
-0.11094510555267334,
-0.14271008968353271,
-0.2685644328594208,
0.1329677402973175,
0.24970349669456482,
-0.001217851066030562,
-0.07099326699972153,
0.10131392627954483,
0.047358378767967224,
-0.07702313363552094,
0.13350209593772888,
-0.10324063152074814,
-0.251810222864151,
0.12359385192394257,
-0.13855302333831787,
0.20749174058437347,
-0.16374365985393524,
0.1739979386329651,
-0.24095061421394348,
-0.24313300848007202,
-0.38063034415245056,
0.009244519285857677,
-0.210259348154068,
-0.3051546812057495,
-0.10233864188194275,
0.021708333864808083,
0.13314850628376007,
-0.18437550961971283,
-0.011112324893474579,
0.16595572233200073,
-0.11105945706367493,
-0.10332753509283066,
-0.2244129180908203,
-0.26817598938941956,
0.32427141070365906,
-0.06418915838003159,
0.14406269788742065,
-0.1698991060256958,
0.18799693882465363,
0.30288437008857727,
0.16284866631031036,
-0.013340718112885952,
-0.19198188185691833,
-0.20024555921554565,
-0.2884356379508972,
0.12223903834819794,
0.012429791502654552,
0.10915447026491165,
0.2748945951461792,
-0.34279128909111023,
0.16663378477096558,
-0.05569632351398468,
-0.08498072624206543,
-0.07609495520591736,
-0.23546266555786133,
0.3176823854446411,
0.09133639931678772,
0.13594631850719452,
0.07353048771619797,
-0.08767290413379669,
-0.07242219895124435,
-0.28838562965393066,
0.011261804960668087,
-0.20630794763565063,
0.3047690987586975,
0.036479491740465164,
0.14624056220054626,
0.22891266644001007,
-0.17790772020816803,
0.12646488845348358,
-0.029649414122104645,
-0.10502621531486511,
0.041134368628263474,
0.04185671731829643,
-0.21782828867435455,
0.28842693567276,
-0.1270822286605835,
0.09334690868854523,
-0.18358421325683594,
0.22918666899204254,
0.05109021067619324,
0.2362884283065796,
-0.25194981694221497,
0.07653757929801941,
0.09441547095775604,
-0.09878939390182495,
0.2648886740207672,
-0.3192506730556488,
-0.11108670383691788,
0.3598610460758209,
0.16789546608924866,
0.17700591683387756,
-0.31968846917152405,
0.034212224185466766,
-0.09652655571699142,
0.21762490272521973,
0.04521176964044571,
0.1751018911600113,
0.3271486759185791,
0.08009789139032364,
0.13901817798614502,
0.05791304260492325,
-0.08382784575223923,
0.27027809619903564,
0.19448834657669067,
0.27028000354766846,
-0.2601270079612732,
-0.0525728315114975,
0.29333463311195374,
0.10012346506118774,
0.15786541998386383,
0.019909443333745003,
0.16361016035079956,
-0.10338688641786575,
-0.17158104479312897,
0.07911395281553268,
-0.05444754287600517,
-0.26513317227363586,
0.33199232816696167,
-0.11701266467571259,
-0.12800616025924683,
-0.1522160768508911,
0.2606952488422394,
-0.049338098615407944,
0.0896192193031311,
-0.1088821068406105,
-0.06471151858568192,
-0.3113130033016205,
-0.13257914781570435,
-0.14237496256828308,
-0.3646090626716614,
0.17093642055988312,
-0.3566037118434906,
-0.23436762392520905,
-0.30650094151496887,
-0.10912692546844482,
0.010160429403185844,
0.08968228101730347,
0.17647165060043335,
-0.33967018127441406,
0.033640582114458084,
-0.13868673145771027,
-0.26096951961517334,
0.1884557008743286,
0.07648250460624695,
-0.03544691577553749,
-0.0035887430422008038,
-0.24524655938148499,
0.0969143956899643,
-0.11515504121780396,
-0.22991566359996796,
-0.26952633261680603,
-0.0595664381980896,
0.009339825250208378,
0.0414024218916893,
-0.31137537956237793,
-0.2697409987449646,
0.003941268660128117,
0.04484514147043228,
-0.0769466757774353,
0.18184073269367218,
0.28352585434913635,
-0.1524464637041092,
0.11700769513845444,
0.1512124389410019,
0.2835483253002167,
-0.22137221693992615,
-0.14728796482086182,
0.054932188242673874,
0.07815307378768921,
-0.2295939028263092,
0.036307722330093384,
-0.04356648400425911,
0.36410462856292725,
-0.3305681049823761,
-0.27083277702331543,
0.029933813959360123,
0.15799756348133087,
0.0805220752954483,
0.033952921628952026,
0.11232319474220276,
0.21880364418029785,
-0.1436464935541153,
-0.11407224088907242,
0.24233898520469666,
0.17629380524158478,
-0.17687633633613586,
0.05342448130249977,
0.28709039092063904,
0.28626808524131775,
0.15786324441432953,
-0.16429239511489868,
-0.2691293954849243,
0.13839450478553772,
-0.032795265316963196,
-0.1501418501138687,
0.29414981603622437,
-0.16194656491279602,
-0.20504975318908691,
0.19440892338752747,
-0.02753555402159691,
-0.24835087358951569,
-0.02816166914999485,
0.17023806273937225,
-0.13312789797782898,
0.020530447363853455,
0.2538381516933441,
0.132302924990654,
-0.03220568969845772,
-0.13466687500476837,
0.1953587681055069,
0.2805742919445038,
0.09092865139245987,
-0.11541246622800827,
-0.26102668046951294,
0.13979074358940125,
0.20407819747924805,
-0.13714709877967834,
0.3038567006587982,
-0.07581007480621338,
0.06219206005334854,
0.2617848217487335,
0.28987687826156616,
0.16939634084701538,
0.21198582649230957,
0.23588445782661438,
0.25011980533599854,
-0.041345879435539246,
0.27354609966278076,
0.008095758967101574,
0.13623051345348358,
-0.12281746417284012,
-0.05956725776195526,
-0.1206914484500885,
0.26239994168281555,
-0.316244900226593,
0.06945407390594482,
-0.0719812735915184,
-0.24488753080368042,
0.38012585043907166,
0.14632903039455414,
0.11104939132928848,
0.051305584609508514,
0.018740305677056313,
-0.34517785906791687,
-0.30265381932258606,
0.2409467250108719,
0.17347438633441925,
-0.16284771263599396,
0.004502756986767054,
-0.2887316048145294,
0.04794303700327873,
0.2773052752017975,
-0.15419542789459229,
0.3249882459640503,
0.2681701183319092,
-0.1626923829317093,
-0.19469374418258667,
0.09462790936231613,
-0.04599859192967415,
0.039167143404483795,
-0.21289484202861786,
0.0495099239051342,
0.016439158469438553,
-0.2858703136444092,
0.03573921322822571,
0.23452027142047882,
-0.06174098700284958,
-0.13978712260723114,
0.18164218962192535,
0.026942672207951546,
0.22392643988132477,
-0.033657606691122055,
0.3460586369037628,
-0.24369867146015167,
0.17081992328166962,
0.2563357949256897,
0.09218867123126984,
-0.13170121610164642,
0.2475002408027649,
0.020521271973848343,
-0.008204071782529354,
-0.25949355959892273,
0.18778786063194275,
-0.27316421270370483,
-0.23865163326263428,
0.17355582118034363,
-0.19326023757457733,
0.25288745760917664,
-0.2848444879055023,
-0.1520448625087738,
0.17108024656772614,
-0.15640980005264282,
-0.023134198039770126,
-0.08931441605091095,
0.1469998061656952,
0.21849291026592255,
-0.31109288334846497,
-0.276577889919281,
0.3874184191226959,
0.18811941146850586,
0.20596939325332642,
-0.2801695168018341,
0.2920968532562256,
-0.23510867357254028,
0.056096650660037994,
0.14647065103054047,
0.20779334008693695,
0.1973927915096283,
-0.127004474401474,
0.20779840648174286,
-0.07766017317771912,
0.24330280721187592,
0.4018608033657074,
0.10168084502220154,
-0.17062538862228394,
0.22703894972801208,
0.3028005361557007,
-0.08895166963338852,
0.22376547753810883,
-0.1453440934419632,
-0.0464041642844677,
0.16425183415412903,
-0.10003606230020523,
0.07111214101314545,
0.17659646272659302,
0.030731530860066414,
0.08409792184829712,
0.24249267578125,
0.3223053812980652,
0.0006362890126183629,
0.07019162178039551,
-0.20884858071804047,
0.1629595011472702,
-0.056376464664936066,
-0.040792401880025864,
-0.031055154278874397,
0.021946169435977936,
-0.16283893585205078,
-0.21935971081256866,
0.07366510480642319,
0.004776036832481623,
-0.2006153017282486,
0.2042122781276703,
-0.08382351696491241,
-0.182023286819458,
0.010590829886496067,
-0.2810584008693695,
-0.2239248901605606,
-0.08024705201387405,
-0.2507472336292267,
-0.06473080813884735,
-0.043295394629240036,
-0.3251488208770752,
-0.007182772736996412,
-0.28607994318008423,
-0.0013105685357004404,
-0.07464460283517838,
-0.03388302028179169,
0.14557963609695435,
-0.3569865822792053,
-0.03670724853873253,
0.13907042145729065,
0.004689717199653387,
0.3047631084918976,
0.2981565296649933,
-0.07948015630245209,
0.08986485749483109,
-0.04041709750890732,
-0.035189397633075714,
0.1742706447839737,
-0.11571278423070908,
0.2158282846212387,
0.07604535669088364,
0.25436416268348694,
0.23128417134284973,
0.05663274601101875,
-0.20396435260772705,
0.2764365077018738,
0.09688003361225128,
0.18074508011341095,
-0.29172760248184204,
-0.28797608613967896,
0.07692137360572815,
-0.1383124589920044,
0.25568899512290955,
0.19354654848575592,
-0.02785533294081688,
0.23035170137882233,
0.3218699097633362,
0.30099284648895264,
-0.22421903908252716,
0.12279893457889557,
-0.16215330362319946,
-0.09272463619709015,
0.17363101243972778,
-0.19083216786384583,
-0.04932992905378342,
0.24060313403606415,
-0.2267642766237259,
-0.2543692886829376,
0.14875143766403198,
0.22027409076690674,
0.009809909388422966,
-0.15164580941200256,
-0.028824331238865852,
0.06836766749620438,
0.2368374764919281,
-0.03339376300573349,
0.2792445719242096,
0.23837947845458984,
-0.07619109004735947,
-0.1111825555562973,
0.11606273055076599,
-0.2780817747116089,
0.024798516184091568,
-0.24342337250709534,
-0.10325571149587631,
0.11521097272634506,
0.0739610567688942,
-0.19979022443294525,
0.29921990633010864,
0.10275030136108398,
0.24641679227352142,
-0.03213530406355858,
0.10555434972047806,
-0.052502039819955826,
-0.19002985954284668,
-0.06427720934152603,
0.08292222023010254,
0.06892776489257812,
-0.07589541375637054,
-0.2049298882484436,
-0.1414577066898346,
0.30562591552734375,
0.1380344182252884,
-0.02660319395363331,
-0.0019301932770758867,
-0.20122721791267395,
-0.114500992000103,
0.13663683831691742,
0.11196836084127426,
0.28126102685928345,
0.04756864160299301,
0.13861896097660065,
0.3139594793319702,
-0.01459411345422268,
-0.11596806347370148,
-0.11914730072021484,
0.24520649015903473,
0.14755402505397797,
0.21799735724925995,
-0.12502361834049225,
0.10532643646001816,
0.1951822191476822,
0.20975540578365326,
0.2633276581764221,
0.26380637288093567,
-0.12285444885492325,
0.0643170177936554,
-0.2503127157688141,
-0.09350519627332687,
0.14256136119365692,
-0.16075396537780762,
0.08824533224105835,
-0.3301644027233124,
0.05618223920464516,
-0.23858848214149475,
0.24145478010177612,
-0.014238748699426651,
0.07886070013046265,
0.4050118923187256,
0.08176863938570023,
-0.025448855012655258,
0.017327718436717987,
-0.07854025810956955,
0.2419501543045044,
0.23215606808662415,
-0.2879233956336975,
-0.0617053359746933,
-0.16362117230892181,
-0.09199199080467224,
-0.21649201214313507,
0.18351837992668152,
0.033765532076358795,
-0.1721392273902893,
-0.25188058614730835,
-0.19119730591773987,
0.19380301237106323,
0.09252797067165375,
0.1900174468755722,
0.05536608397960663,
-0.309644490480423,
0.1573994904756546,
0.12939655780792236,
-0.12276360392570496,
0.1878262758255005,
-0.23433800041675568,
-0.24882569909095764,
-0.20325309038162231,
0.2616663873195648,
0.010165117681026459,
0.03046790324151516,
-0.10263883322477341,
-0.21416951715946198,
-0.2428300380706787,
0.42261913418769836,
-0.13257662951946259,
-0.28819820284843445,
0.037969522178173065,
-0.3417437970638275,
0.23876875638961792,
0.07698005437850952,
0.1571202129125595,
-0.20052388310432434,
-0.20095203816890717,
0.1477997601032257,
-0.258709579706192,
-0.32987746596336365,
0.12248517572879791,
0.20695824921131134,
-0.08604200184345245,
0.31247660517692566,
-0.0020659405272454023,
-0.1745515763759613,
-0.3128041625022888,
0.32265380024909973,
-0.012869544327259064,
-0.09353487193584442,
-0.09491003304719925,
-0.20092535018920898,
-0.27761539816856384,
-0.2327154129743576,
0.008687237277626991,
0.22538085281848907,
-0.08532529324293137,
0.16118104755878448,
-0.23917049169540405,
-0.08355224877595901,
-0.3452857732772827,
-0.08154845237731934,
0.08475258201360703,
-0.12961997091770172,
-0.1531088501214981,
0.03495378419756889,
-0.06998169422149658,
-0.1938910335302353,
0.17579370737075806,
-0.018402371555566788,
0.014000711031258106,
-0.08950494974851608,
0.1444391906261444,
0.11732036620378494,
0.07900609821081161,
-0.06130049750208855,
-0.1920786052942276,
-0.1318833976984024,
-0.2451111376285553,
0.26521435379981995,
-0.18930624425411224,
0.04882774129509926,
-0.3269653022289276,
0.014329381287097931,
-0.29145461320877075,
-0.11260110139846802,
-0.320568710565567,
-0.1885984241962433,
-0.037668343633413315,
-0.20378126204013824,
0.2660955488681793,
-0.08232706785202026,
-0.03582296893000603,
0.2685226500034332,
0.230628103017807,
-0.049543507397174835,
0.18547089397907257,
0.1614830642938614,
0.15246853232383728,
0.3303557336330414,
0.3138580620288849,
-0.09310203790664673,
0.03629619628190994,
-0.06687983870506287,
-0.26645150780677795,
-0.2297171652317047,
-0.2399977743625641,
0.14286097884178162,
-0.2944702208042145,
0.29957857728004456,
0.2604486048221588,
-0.14232346415519714,
-0.24299539625644684,
0.19980254769325256,
-0.03548305109143257,
-0.2502190172672272,
-0.06471420079469681,
0.06499050557613373,
-0.2232527881860733,
-0.05857698991894722,
-0.2389136105775833,
0.19504784047603607,
0.20625077188014984,
-0.09187909960746765,
-0.29230254888534546,
0.04094898700714111,
0.204408198595047,
0.08469698578119278,
0.3961479961872101,
0.029406670480966568,
-0.04510284215211868,
-0.06554975360631943,
0.21783119440078735,
0.2647913694381714,
0.24488596618175507,
0.04047023132443428,
-0.1995667964220047,
0.11207672953605652,
0.14886070787906647,
-0.23814599215984344,
-0.42897090315818787,
-0.35817742347717285,
-0.05529789999127388,
0.2287905514240265,
0.16492052376270294,
0.19511425495147705,
-0.10765214264392853,
-0.295464426279068,
0.1752595752477646,
-0.17555223405361176,
0.171433687210083,
0.23796606063842773,
-0.005641883704811335,
-0.19555459916591644,
0.35197845101356506,
-0.08762900531291962,
-0.2261744737625122,
-0.17118652164936066,
0.10108672082424164,
-0.3436198830604553,
-0.18282537162303925,
-0.19504830241203308,
-0.07462354749441147,
0.3074003756046295,
0.060079220682382584,
-0.02363729104399681,
-0.13524720072746277,
-0.05019764229655266,
0.31273362040519714,
0.3179996609687805,
0.2985036373138428,
0.07006371766328812,
-0.09054533392190933,
0.11023081839084625,
-0.23058316111564636,
0.1921232044696808,
-0.1671638786792755,
-0.10715360939502716,
-0.11316206306219101,
0.19275997579097748,
0.02174072153866291,
-0.43727803230285645,
-0.09218727797269821,
0.056811969727277756,
0.27804791927337646,
0.10955619812011719,
-0.2426278293132782,
-0.24995599687099457,
0.09883017092943192,
0.11295148730278015,
-0.027423718944191933,
-0.3185711205005646,
-0.06479799747467041,
-0.14540688693523407,
0.20284149050712585,
-0.11592984944581985,
0.14389726519584656,
0.12664037942886353,
-0.21179716289043427,
-0.08334814757108688,
0.06538864225149155,
0.03823494538664818,
0.00418252544477582,
0.15773627161979675,
0.2469833940267563,
-0.2640581429004669,
0.03278227150440216,
0.03500978648662567,
-0.20773659646511078,
0.27982673048973083,
-0.10396051406860352,
0.07094205915927887,
-0.2469889223575592,
0.013579165562987328,
0.11286640167236328,
-0.1606227606534958,
-0.06017275154590607,
0.2781367301940918,
-0.20453864336013794,
0.260709673166275,
0.1264849305152893,
-0.24145178496837616,
-0.4080060124397278,
0.0761381983757019,
-0.23896072804927826,
-0.007888484746217728,
-0.2028091996908188,
0.01647239550948143,
0.20682859420776367,
-0.3235264718532562,
-0.008483829908072948,
0.005480270832777023,
0.18767213821411133,
-0.2813052833080292,
-0.1579209864139557,
-0.08710206300020218,
0.2451600879430771,
0.22833822667598724,
-0.1590271145105362,
0.24495790898799896,
0.22788335382938385,
-0.3617238700389862,
0.11141310632228851,
-0.27223822474479675,
0.1355755627155304,
-0.007889898493885994,
-0.013681558892130852,
0.25195080041885376,
0.03183312341570854,
-0.06275880336761475,
0.11181627213954926,
-0.13762718439102173,
0.09591774642467499,
0.22826704382896423,
0.3420228362083435,
0.2071383148431778,
-0.32100868225097656,
0.16147316992282867,
-0.36452168226242065,
-0.08198787271976471,
0.16428807377815247,
-0.056341394782066345,
-0.09108292311429977,
-0.0373305082321167,
0.072047658264637,
-0.1302010416984558,
-0.1775815337896347,
-0.14422905445098877,
0.17368175089359283,
-0.1171826645731926,
-0.07837476581335068,
-0.10155520588159561,
-0.08500050008296967,
0.025930631905794144,
-0.2976720631122589,
0.12538662552833557,
0.14302615821361542,
0.1332145780324936,
-0.05525682866573334,
-0.02385341003537178,
0.08306290209293365,
-0.1970181167125702,
-0.14741265773773193,
-0.4535534381866455,
-0.20030277967453003,
0.10722246021032333,
-0.11739877611398697,
0.19121652841567993,
0.12065231800079346,
0.13678725063800812,
-0.3244917094707489,
-0.31242701411247253,
-0.08573494851589203,
0.08729048818349838,
0.08004427701234818,
-0.07526067644357681,
0.1906297653913498,
0.16841596364974976,
0.03411681950092316,
0.18481050431728363,
0.1725378781557083,
-0.2307855635881424,
-0.13196727633476257,
0.14909596741199493,
0.11450106650590897,
-0.10776674002408981,
0.07801371067762375,
0.16748124361038208,
0.10918985307216644,
0.18589018285274506,
-0.2772640287876129,
-0.36464861035346985,
0.18580222129821777,
0.12694600224494934,
0.19953684508800507,
0.3266142010688782,
-0.19388967752456665,
0.28373289108276367,
-0.023444319143891335,
-0.06387396156787872,
-0.2981848120689392,
-0.2849063575267792,
0.03998139128088951,
-0.2864340543746948,
-0.2868434190750122,
0.16170547902584076,
-0.30876174569129944,
0.2605517506599426,
-0.19632698595523834,
-0.01860835961997509,
-0.28961771726608276,
-0.06704629957675934,
0.025278287008404732,
-0.2380887120962143,
0.06184130907058716,
0.17300978302955627,
-0.20372417569160461,
-0.22220046818256378,
-0.14560359716415405,
-0.1493532359600067,
0.1459982991218567,
0.21443600952625275,
0.2739715576171875,
0.05867036432027817,
0.012443128041923046,
0.21656343340873718,
0.3834514319896698,
0.30134114623069763,
-0.18874341249465942,
-0.11531008780002594,
-0.13411270081996918,
0.11748816817998886,
0.34051692485809326,
0.1682388037443161,
-0.187789648771286,
0.2963244616985321,
-0.3241526484489441,
-0.24796052277088165,
-0.149386465549469,
-0.04548255726695061,
-0.17867586016654968,
-0.22251082956790924,
-0.3042524456977844,
0.2061152309179306,
-0.29016175866127014,
0.3108951449394226,
0.17080821096897125,
-0.30790799856185913,
-0.08244158327579498,
-0.06426342576742172,
0.1866818517446518,
-0.3181720972061157,
-0.0702095702290535,
0.14518553018569946,
-0.16440394520759583,
0.01797839254140854,
-0.1247931644320488,
-0.029154624789953232,
0.14246641099452972,
0.1839352250099182,
-0.12389866262674332,
-0.27420011162757874,
0.15486159920692444,
0.16639946401119232,
-0.1275617629289627,
0.017369531095027924,
-0.01596933975815773,
0.19605882465839386,
-0.08605705946683884,
0.3000301122665405,
0.1738077849149704,
-0.23263156414031982,
-0.10257444530725479,
-0.1649017035961151,
-0.061587970703840256,
-0.2704562842845917,
0.05056567117571831,
-0.0009777810191735625,
-0.007867759093642235,
-0.04242359474301338,
-0.3368198275566101,
-0.2990536689758301,
0.11739598214626312,
0.06095733121037483,
0.10401267558336258,
-0.1601973921060562,
0.12286286056041718,
0.2543056607246399,
-0.16835609078407288,
-0.3072187602519989,
0.2884129583835602,
-0.06222138553857803,
-0.15639165043830872,
0.21547940373420715,
0.33159446716308594,
-0.08081737905740738,
-0.2922535240650177,
0.014049087651073933,
0.052962977439165115,
-0.2441713660955429,
0.07833883911371231,
0.13719385862350464,
-0.16917717456817627,
0.4062902629375458,
0.24774965643882751,
0.1439676135778427,
-0.2693770229816437,
0.21862901747226715,
0.011671967804431915,
-0.01392077375203371,
0.05855037644505501,
0.11921676993370056,
0.056366704404354095,
0.21605536341667175,
-0.35728776454925537,
-0.2274940311908722,
-0.1687549501657486,
0.14693428575992584,
0.11640999466180801,
0.1538863480091095,
0.05596008524298668,
0.29157814383506775,
-0.2678598165512085,
-0.21769095957279205,
0.13432835042476654,
-0.054929882287979126,
0.1857556402683258,
0.2621822655200958,
0.32769596576690674,
-0.20073382556438446,
-0.26311028003692627,
0.15751288831233978,
-0.14162126183509827,
-0.10332099348306656,
0.1295129507780075,
-0.03152969107031822,
0.026484860107302666,
0.24847723543643951,
0.1818149834871292,
-0.1424805223941803,
0.16100037097930908,
0.019798308610916138,
0.17476128041744232,
0.08959168195724487,
-0.2980307340621948,
0.3436599671840668,
-0.056261323392391205,
0.3814169466495514,
0.22608397901058197,
0.15128010511398315,
0.051434822380542755,
-0.15025323629379272,
0.12301436066627502,
-0.21878133714199066,
-0.022327205166220665,
-0.08619295060634613,
0.08703245222568512,
0.05061662569642067,
-0.29226866364479065,
-0.0886676236987114,
-0.029467778280377388,
0.10146579146385193,
0.2609306573867798,
-0.2560969591140747,
-0.3009405732154846,
0.12232128530740738,
-0.16068878769874573,
0.2072262316942215,
-0.11694936454296112,
-0.11325148493051529,
-0.09924407303333282,
0.028581302613019943,
0.2630177438259125,
-0.36303630471229553,
-0.31133371591567993,
-0.1854160726070404,
-0.02944008819758892,
-0.01685785874724388,
0.24641364812850952,
-0.338543176651001,
-0.21480920910835266,
-0.32912397384643555,
-0.1462697684764862,
-0.147423654794693,
-0.2174818217754364,
0.15241234004497528,
0.04106888547539711,
-0.12227895110845566,
0.21291489899158478,
0.2111697494983673,
0.1743011474609375,
-0.009617014788091183,
0.13104090094566345,
-0.07618425786495209,
-0.11003529280424118,
-0.1490844488143921,
0.09763982892036438,
-0.13663506507873535,
-0.18126554787158966,
0.06966276466846466,
0.3810703456401825,
-0.0920465961098671,
-0.0807047113776207,
0.19306057691574097,
-0.0850706398487091,
0.20200422406196594,
0.35671862959861755,
0.11484397947788239,
-0.13471083343029022,
-0.08190981298685074,
0.09391654282808304,
0.21444754302501678,
-0.06280453503131866,
-0.19011381268501282,
0.12776567041873932,
-0.10836809128522873,
-0.08971930295228958,
0.05459173768758774,
0.02864493429660797,
0.13587674498558044,
-0.041321881115436554,
0.09677620977163315,
0.1457415521144867,
-0.25607234239578247,
0.10447049885988235,
-0.11181958764791489,
-0.022082943469285965,
0.2875324785709381,
0.24494947493076324,
0.3475568890571594,
0.04745258763432503,
0.38826999068260193,
0.10281123220920563,
0.09424231946468353,
-0.02573050744831562,
-0.1928732544183731,
-0.2754496932029724,
-0.1185155138373375,
0.1733947992324829,
-0.06431429088115692,
0.09195199608802795,
-0.015195232816040516,
-0.13790370523929596,
-0.18677754700183868,
-0.014202860184013844,
0.1910877227783203,
0.2474634200334549,
0.14664143323898315,
-0.049613747745752335,
0.2730769217014313,
-0.250120609998703,
-0.1195119172334671,
-0.37826764583587646,
-0.1409246176481247,
-0.16326484084129333,
0.0036784568801522255,
0.24237065017223358,
-0.07682935148477554,
0.26960331201553345,
0.08706444501876831,
0.03316332399845123,
-0.012408018112182617,
0.07825781404972076,
0.053305454552173615,
-0.12085249274969101,
-0.2247813642024994,
-0.20497365295886993,
-0.03417971357703209,
-0.37181568145751953,
0.13204126060009003,
-0.29246985912323,
0.013131399638950825,
-0.0747077539563179,
0.1877678632736206,
0.027944602072238922,
-0.026774106547236443,
0.21611593663692474,
0.37644603848457336,
-0.12433294951915741,
-0.09489751607179642,
0.12269455939531326,
0.10821470618247986,
-0.2555831968784332,
0.056196682155132294,
0.3545413017272949,
-0.23616936802864075,
-0.2676682770252228,
-0.1275259256362915,
-0.15799029171466827,
0.3890281915664673,
-0.06400540471076965,
-0.0038459845818579197,
0.18229500949382782,
0.20358332991600037,
-0.3354416787624359,
-0.2973095774650574,
-0.08382457494735718,
-0.29004383087158203,
0.06146193668246269,
-0.31411945819854736,
-0.028787018731236458,
-0.05369266867637634,
-0.003931790590286255,
-0.0740494579076767,
0.18538038432598114,
0.2598396837711334,
0.0028347184415906668,
-0.16164761781692505,
0.160486102104187,
-0.04703056067228317,
-0.06117967888712883,
0.2107318639755249,
0.23789110779762268,
0.23772574961185455,
0.19383402168750763,
0.08773989230394363,
0.1514894664287567,
-0.18209289014339447,
-0.3172374665737152,
0.13495774567127228,
-0.06078816577792168,
-0.21933358907699585,
0.009439590387046337,
0.022562623023986816,
-0.23931598663330078,
0.0015458350535482168,
-0.25284910202026367,
-0.05994256213307381,
0.06750695407390594,
0.17442436516284943,
0.1276911199092865,
-0.13705551624298096,
-0.2500813603401184,
0.284942626953125,
0.15703696012496948,
0.16230887174606323,
0.16899657249450684,
0.07182645797729492,
0.015843890607357025,
0.08048145473003387,
0.3182404935359955,
0.15958653390407562,
0.159320667386055,
-0.025386180728673935,
0.07627913355827332,
0.14099472761154175,
-0.17701400816440582,
-0.07619523257017136,
-0.13361331820487976,
-0.08502203226089478,
0.17449520528316498,
0.1680176556110382,
-0.16941571235656738,
-0.14007827639579773,
0.1970689743757248,
-0.28237175941467285,
-0.03733087703585625,
-0.08919883519411087,
-0.12293154746294022,
-0.07399839162826538,
0.14012840390205383,
-0.06767820566892624,
-0.018654515966773033,
-0.10771597176790237,
0.198719322681427,
0.16911186277866364,
-0.1636221557855606,
0.04423262178897858,
-0.13067565858364105,
-0.14556652307510376,
-0.1819445788860321,
0.21396449208259583,
0.2277001291513443,
-0.26561102271080017,
-0.2922418713569641,
-0.09691917151212692,
-0.13455675542354584,
-0.27504754066467285,
-0.14220963418483734,
0.238089457154274,
0.025108695030212402,
0.39597371220588684,
0.13676181435585022,
-0.17964714765548706,
-0.2302996963262558,
-0.015744276344776154,
-0.15314385294914246,
-0.11714552342891693,
-0.16258011758327484,
-0.08280851691961288,
0.19681422412395477,
0.28088119626045227,
0.2185584008693695,
-0.13708463311195374,
-0.048569243401288986,
0.3642052114009857,
-0.06039245426654816,
0.0294791329652071,
0.03367028385400772,
0.1356724351644516,
-0.1914920210838318,
0.20938090980052948,
0.04146195575594902,
-0.0948524996638298,
-0.1833994835615158,
-0.0991724357008934,
-0.004951448179781437,
-0.18118269741535187,
-0.08271211385726929,
0.18475884199142456,
0.26337161660194397,
0.0516304187476635,
-0.01133485697209835,
-0.079375259578228,
0.016583744436502457,
0.23179824650287628,
-0.2758350372314453,
-0.21888987720012665,
-0.005869090557098389,
0.1759607493877411,
0.09304340183734894,
-0.23095491528511047,
-0.2634868919849396,
0.06474483758211136,
-0.2742001414299011,
0.2607119679450989,
0.16528131067752838,
-0.006806257646530867,
0.1433582752943039,
-0.07200092077255249,
-0.07622243463993073,
0.2852378189563751,
0.030865740031003952,
0.21349091827869415,
-0.11839393526315689,
-0.1849323958158493,
0.09774928539991379,
0.11811336129903793,
0.402964323759079,
0.34274768829345703,
0.18826474249362946,
0.24565337598323822,
0.09250254184007645,
-0.047994911670684814,
0.23297128081321716,
-0.046669766306877136,
-0.11307457089424133,
-0.06549885869026184,
-0.11879333108663559,
0.30409762263298035,
-0.33202508091926575,
-0.05850755050778389,
0.16883310675621033,
0.3033205568790436,
0.09693214297294617,
-0.10257210582494736,
0.08560454100370407,
-0.03508635610342026,
-0.30397820472717285,
0.13140517473220825,
-0.021115142852067947,
-0.12939570844173431,
0.031689006835222244,
-0.13694556057453156,
-0.21990284323692322,
0.054321806877851486,
-0.18488137423992157,
0.18018804490566254,
0.21099291741847992,
0.10189691931009293,
-0.016977662220597267,
0.06701590120792389,
-0.07288581877946854,
0.24298180639743805,
0.25764650106430054,
-0.27871036529541016,
-0.31969037652015686,
-0.15447847545146942,
-0.03105846606194973,
-0.0030778818763792515,
-0.14721158146858215,
-0.1711314469575882,
0.0117357661947608,
-0.16866624355316162,
-0.033616743981838226,
0.0016224205028265715,
-0.26451945304870605,
0.05018886923789978,
0.0666235014796257,
-0.08789301663637161,
0.026112062856554985,
0.17238011956214905,
-0.20512385666370392,
0.10008155554533005,
0.03314198553562164,
0.29028627276420593,
-0.27062055468559265,
0.12714597582817078,
0.13843557238578796,
-0.20701417326927185,
-0.37036430835723877,
-0.06518156826496124,
0.293195903301239,
-0.10222502052783966,
-0.1227729395031929,
-0.00258544459939003,
0.11876588314771652,
0.039539650082588196,
0.3197624981403351,
-0.06950600445270538,
0.04745630547404289,
0.2465161234140396,
-0.08998390287160873,
-0.16232933104038239,
0.01732378453016281,
-0.06524576246738434,
-0.0390276163816452,
-0.3355066776275635,
-0.04945581778883934,
-0.025172142311930656,
-0.14787879586219788,
0.1338319629430771,
0.3461146056652069,
0.06814226508140564,
0.3184455931186676,
0.0613064244389534,
-0.03665388002991676,
0.08838672190904617,
-0.09976885467767715,
-0.045185741037130356,
-0.17489290237426758,
-0.13970257341861725,
0.2418963760137558,
-0.07168634235858917,
0.14572849869728088,
0.18069949746131897,
-0.13878731429576874,
-0.16170479357242584,
-0.3493128716945648,
0.19961220026016235,
-0.16524875164031982,
-0.0499211885035038,
-0.06274907290935516,
-0.05736784264445305,
-0.044056735932826996,
0.2107527256011963,
-0.14772862195968628,
-0.2169540524482727,
0.21685177087783813,
-0.07091119885444641,
0.1218474805355072,
0.19387409090995789,
-0.11610347777605057,
0.12710542976856232,
-0.023454245179891586,
-0.12891432642936707,
-0.11185743659734726,
0.08933141827583313,
-0.06240095570683479,
-0.1931566298007965,
0.27973732352256775,
0.18218189477920532,
0.0892181321978569,
-0.015210827812552452,
0.006337890867143869,
0.18322685360908508,
-0.34974437952041626,
0.03029256872832775,
-0.170510932803154,
-0.007276094518601894,
0.15766757726669312,
-0.3050958514213562,
-0.020069140940904617,
-0.17612098157405853,
-0.20474740862846375,
-0.06365280598402023,
-0.20229743421077728,
-0.28335586190223694,
-0.11311287432909012,
-0.147805318236351,
-0.13362635672092438,
0.11273536086082458,
-0.2807943522930145,
0.0416073277592659,
-0.15750454366207123,
0.20985083281993866,
-0.1071741133928299,
-0.2939620912075043,
-0.08988572657108307,
0.36601120233535767,
0.3565964102745056,
0.14915180206298828,
-0.12309140712022781,
0.14042803645133972,
0.30947524309158325,
-0.34468305110931396,
0.14673955738544464,
0.28269854187965393,
-0.19842739403247833,
-0.11810015141963959,
-0.03360546752810478,
-0.10140974074602127,
0.0824345052242279,
-0.08644479513168335,
-0.034507181495428085,
-0.15260116755962372,
-0.26551586389541626,
0.22339393198490143,
-0.10310725122690201,
-0.324400931596756,
0.16714763641357422,
-0.041291672736406326,
0.2334378957748413,
-0.21188576519489288,
-0.019566304981708527,
-0.2060205340385437,
-0.1977839171886444,
0.07674121111631393,
-0.12787510454654694,
-0.1437559872865677,
-0.15296675264835358,
-0.24851492047309875,
0.0674482062458992,
0.16957177221775055,
0.12781766057014465,
0.14793136715888977,
0.13722454011440277,
-0.11278588324785233,
-0.24121695756912231,
0.2949528098106384,
0.04985105246305466,
0.1127830371260643,
-0.2482326328754425,
-0.007707931101322174,
0.11944712698459625,
0.0323881097137928,
-0.24099215865135193,
0.2153921127319336,
-0.052584629505872726,
0.21552738547325134,
0.15279388427734375,
0.1579786092042923,
0.11193700134754181,
-0.19910676777362823,
-0.25398263335227966,
0.02726011537015438,
-0.08720466494560242,
-0.13473111391067505,
-0.3578081727027893,
0.16088718175888062,
0.004189980681985617,
-0.24497690796852112,
-0.010252769105136395,
-0.14176906645298004,
-0.2649456560611725,
-0.15076684951782227,
-0.11988027393817902,
0.21762175858020782,
0.06878088414669037,
0.08228932321071625,
0.12420592457056046,
-0.0008086450980044901,
0.2889591157436371,
-0.1155097484588623,
-0.18383929133415222,
0.03697862848639488,
0.25781387090682983,
0.05618574842810631,
-0.06702155619859695,
-0.013134797103703022,
0.08880844712257385,
0.2087494432926178,
0.275991290807724,
0.11885500699281693,
-0.15776455402374268,
-0.11563435196876526,
0.02771742455661297,
-0.25815168023109436,
-0.059801824390888214,
0.23406442999839783,
-0.1299077272415161,
-0.11863035708665848,
-0.05584937334060669,
0.12187202274799347,
0.06628522276878357,
-0.027526332065463066,
-0.04163229838013649,
-0.08022524416446686,
-0.062478840351104736,
0.1388145238161087,
0.07245737314224243,
0.1661536991596222,
-0.01848968118429184,
0.16277094185352325,
-0.03106788545846939,
-0.04062748700380325,
-0.14308124780654907,
-0.12573406100273132,
0.21274983882904053,
0.08440646529197693,
-0.14208665490150452,
0.17273853719234467,
0.05938546732068062,
-0.01112138107419014,
0.05622405186295509,
0.169527068734169,
0.23006798326969147,
-0.12034094333648682,
-0.02354401908814907,
-0.21538841724395752,
-0.25565141439437866,
0.045658327639102936,
-0.11815346777439117,
-0.1836368292570114,
0.2514443099498749,
0.07333820313215256,
-0.07043133676052094,
-0.044736701995134354,
-0.19367679953575134,
0.07854178547859192,
0.029081955552101135,
-0.12935520708560944,
-0.0005349285784177482,
0.10127635300159454,
-0.0004385245847515762,
0.28743776679039,
-0.11486942321062088,
-0.04477855563163757,
-0.05074865743517876,
-0.1438075453042984,
-0.0923033207654953,
-0.004549620673060417,
0.09979679435491562,
-0.23079101741313934,
-0.17857064306735992,
0.11652927100658417,
-0.2747361660003662,
0.2698972821235657,
-0.1949051469564438,
0.15579450130462646,
-0.24331487715244293,
0.07634057104587555,
0.13958391547203064,
-0.08053787797689438,
-0.13061895966529846,
-0.01251364778727293,
-0.2815186679363251,
0.0007105311378836632,
-0.23426692187786102,
-0.008331360295414925,
0.09744460880756378,
-0.03368489071726799,
-0.21280233561992645,
-0.041590847074985504,
0.008095411583781242,
0.09287958592176437,
0.26143932342529297,
0.23932786285877228,
-0.2249048948287964,
0.06731465458869934,
0.08747151494026184,
-0.033254820853471756,
0.11150806397199631,
-0.13284288346767426,
-0.007561570964753628,
-0.1806989461183548,
0.1594688594341278,
-0.07532057911157608,
0.20853103697299957,
0.008741112425923347,
-0.054614726454019547,
-0.28175318241119385,
0.17934732139110565,
-0.027414247393608093,
0.04465552791953087,
-0.14411449432373047,
-0.33040326833724976,
0.09777919203042984,
-0.05960160866379738,
-0.07199899107217789,
-0.015774475410580635,
-0.14407604932785034,
0.06938908994197845,
0.19415754079818726,
0.230159729719162,
0.048569511622190475,
0.21184059977531433,
-0.21815313398838043,
0.14084284007549286,
-0.2847062647342682,
0.06711383163928986,
-0.08095379173755646,
0.2556985914707184,
0.10604788362979889,
0.3387027978897095,
-0.09113329648971558,
0.22200648486614227,
-0.1021241769194603,
0.25710591673851013,
-0.23659464716911316,
0.07227785885334015,
-0.11380727589130402,
-0.15599434077739716,
0.10769279301166534,
-0.2477850615978241,
-0.129546657204628,
0.0887584313750267,
0.306670606136322,
0.3382990062236786,
-0.04494943469762802,
0.17444804310798645,
-0.21076202392578125,
-0.04885787516832352,
0.1462162882089615,
-0.01014208234846592,
-0.09386363625526428,
-0.007717541418969631,
-0.019040172919631004,
0.0993337631225586,
0.06745830178260803,
-0.057434361428022385,
0.12811383605003357,
-0.2682085931301117,
0.209207221865654,
-0.29587122797966003,
-0.0071367304772138596,
-0.343431681394577,
-0.005383516661822796,
-0.14622047543525696,
-0.07085870206356049,
-0.02736075408756733,
-0.03537994995713234,
0.047563254833221436,
-0.07197346538305283,
0.11192789673805237,
0.19809836149215698,
-0.4043216109275818,
-0.10756287723779678,
0.10799571871757507,
-0.06484348326921463,
0.21798908710479736,
0.19172658026218414,
0.40697216987609863,
0.16126203536987305,
-0.04712287336587906,
0.043626584112644196,
0.1276741474866867,
-0.16761736571788788,
-0.022539392113685608,
0.08792755752801895,
-0.2145242542028427,
0.3457236588001251,
-0.005490903276950121,
0.060688093304634094,
-0.22708049416542053,
-0.06604362279176712,
0.06644216924905777,
0.07111084461212158,
-0.08490940183401108,
0.3768957853317261,
-0.09421861916780472,
0.19857750833034515,
-0.17122676968574524,
0.09348735958337784,
-0.0015340900281444192,
-0.04253436252474785,
0.067570261657238,
0.07109882682561874,
0.11546143144369125,
0.1272626668214798,
-0.23794564604759216,
-0.09409505873918533,
-0.14302268624305725,
-0.07913756370544434,
-0.13387933373451233,
-0.30177614092826843,
0.04871969297528267,
-0.2005225121974945,
-0.02486838772892952,
-0.06533677875995636,
0.3387829065322876,
0.007490584161132574,
-0.019698426127433777,
-0.17222455143928528,
-0.025282034650444984,
-0.07131793349981308,
-0.29953765869140625,
0.28024107217788696,
0.09674785286188126,
0.26692265272140503,
0.0801510289311409,
-0.018642611801624298,
0.18629831075668335,
0.1792556643486023,
-0.2948690354824066,
-0.11088337749242783,
-0.18176089227199554,
-0.19159060716629028,
0.07386655360460281,
0.2122296392917633,
-0.13342615962028503,
-0.1452324241399765,
-0.029416775330901146,
-0.1566246598958969,
-0.24541759490966797,
-0.40333089232444763,
-0.08908139169216156,
-0.20452481508255005,
0.07351554185152054,
-0.20209582149982452,
-0.016538875177502632,
0.20036213099956512,
-0.028034944087266922,
-0.1880180686712265,
0.31138116121292114,
-0.09977814555168152,
-0.032456863671541214,
0.24583441019058228,
0.27574896812438965,
0.2087920606136322,
-0.23647700250148773,
-0.09970016032457352,
-0.23818723857402802,
0.14328806102275848,
0.22142794728279114,
0.35751980543136597,
0.23708713054656982,
0.22250856459140778,
-0.23212149739265442,
0.21273721754550934,
-0.3274475336074829,
0.20142316818237305,
-0.045122817158699036,
0.07226584106683731,
-0.29513490200042725,
-0.023447584360837936,
0.203985333442688,
-0.27397090196609497,
0.03937026858329773,
-0.10837582498788834,
0.31262901425361633,
-0.04256449639797211,
0.14531292021274567,
-0.12821532785892487,
0.18240702152252197,
0.22426961362361908,
0.026046156883239746,
-0.06433309614658356,
-0.03407273441553116,
-0.09572821855545044,
-0.05931634083390236,
-0.016147296875715256,
-0.06793518364429474,
-0.36688196659088135,
-0.26648932695388794,
-0.24077191948890686,
0.4175422489643097,
0.13625286519527435,
0.17354916036128998,
-0.02220856212079525,
0.08093205839395523,
0.08076906949281693,
-0.06755311042070389,
0.10238081216812134,
-0.11425020545721054,
-0.25514233112335205,
-0.04834825545549393,
0.2093692272901535,
-0.1053381860256195,
0.14730563759803772,
0.14920096099376678,
0.28359246253967285,
-0.09284884482622147,
-0.3367307484149933,
0.21651813387870789,
-0.11902622878551483,
-0.2525196373462677,
-0.04838576912879944,
0.17332109808921814,
0.2130317986011505,
-0.30670902132987976,
0.21659067273139954,
0.13794401288032532,
-0.059715040028095245,
-0.1367030292749405,
-0.3014768958091736,
-0.16614018380641937,
0.3143349885940552,
-0.05669059976935387,
0.11156982183456421,
0.09424421936273575,
-0.18146926164627075,
0.1069197952747345,
0.16836021840572357,
0.020599476993083954,
-0.0413396842777729,
-0.3466331362724304,
-0.021456755697727203,
-0.07305042445659637,
-0.10290143638849258,
-0.0698201134800911,
0.32822489738464355,
-0.1981852799654007,
0.11310364305973053,
0.016126343980431557,
-0.18526621162891388,
0.17797566950321198,
-0.1778438687324524,
-0.08220323175191879,
-0.16245508193969727,
0.24341148138046265,
0.2438134253025055,
0.18502341210842133,
0.01166523341089487,
0.22188769280910492,
-0.11728039383888245,
0.035719603300094604,
0.07696063071489334,
0.29451778531074524,
-0.25507694482803345,
0.262975811958313,
-0.14427030086517334,
0.03498966991901398,
0.15059787034988403,
0.18568335473537445,
-0.09939005225896835,
-0.030598070472478867,
0.006933290045708418,
-0.18727341294288635,
-0.00051409553270787,
0.008744609542191029,
-0.20334681868553162,
-0.20772051811218262,
-0.21024678647518158,
-0.04692261666059494,
-0.12356582283973694,
-0.06493684649467468,
0.13321183621883392,
-0.21682587265968323,
-0.07906147092580795,
0.0006728160660713911,
-0.21093210577964783,
0.10677593946456909,
0.0870569571852684,
-0.3324565291404724,
0.3114716112613678,
0.00733796926215291,
-0.08759436011314392,
0.3144906759262085,
-0.019341368228197098,
-0.08607731014490128,
-0.29840460419654846,
0.07493085414171219,
0.043725527822971344,
-0.15594226121902466,
-0.03037230484187603,
0.2990960478782654,
-0.08301861584186554,
0.05788743495941162,
-0.04647522419691086,
0.3227904438972473,
0.02358940988779068,
-0.03870771825313568,
-0.1295802742242813,
0.23938477039337158,
-0.059457797557115555,
0.2086532562971115,
-0.03453068062663078,
0.24741840362548828,
0.011034873314201832,
0.24267126619815826,
0.02960905246436596,
0.04305240884423256,
0.13514594733715057,
-0.016674518585205078,
0.18287236988544464,
-0.26859042048454285,
0.03589949011802673,
-0.3484688997268677,
-0.09608568996191025,
0.16378338634967804,
-0.21024133265018463,
-0.13187356293201447,
-0.3042371869087219,
0.12098678946495056,
-0.21846508979797363,
-0.2234426885843277,
-0.27559950947761536,
0.06751054525375366,
0.07585388422012329,
-0.10461243987083435,
0.12798148393630981,
0.016046646982431412,
0.07274361699819565,
0.1164214164018631,
0.08251077681779861,
-0.07755116373300552,
0.20259985327720642,
-0.08328919857740402,
0.16996395587921143,
-0.09220730513334274,
0.08241501450538635,
0.13997074961662292,
0.2497318834066391,
0.2463880032300949,
0.018553955480456352,
-0.019267410039901733,
-0.04291783645749092,
0.1303780972957611,
0.11090433597564697,
-0.17405150830745697,
0.33485114574432373,
0.10106932371854782,
-0.13834954798221588,
0.21692506968975067,
-0.0877859890460968,
-0.06137382611632347,
-0.006652992218732834,
0.1046416312456131,
0.00435218820348382,
-0.22612714767456055,
0.06056498363614082,
-0.26054489612579346,
0.16343365609645844,
0.09085530787706375,
0.05698598176240921,
0.13011963665485382,
0.0995103120803833,
-0.009104987606406212,
-0.15531352162361145,
0.15565380454063416,
0.10058200359344482,
-0.297126442193985,
-0.12083172053098679,
0.060935575515031815,
-0.1828833818435669,
0.292531281709671,
-0.11044995486736298,
-0.27160507440567017,
0.2225903868675232,
0.04504767432808876,
0.13251453638076782,
-0.13502420485019684,
-0.10428734123706818,
0.20193782448768616,
0.09009377658367157,
-0.13755065202713013,
0.13763278722763062,
0.08332367241382599,
-0.3255390226840973,
0.0042345416732132435,
-0.2358410656452179,
0.18445593118667603,
-0.15186841785907745,
-0.016006944701075554,
-0.20344753563404083,
0.11087852716445923,
0.04299190640449524,
-0.15082821249961853,
-0.215976744890213,
-0.11761127412319183,
0.06940897554159164,
-0.03845635801553726,
-0.023184645920991898,
0.06814703345298767,
-0.02394815906882286,
0.10604573786258698,
-0.24210244417190552,
-0.10597501695156097,
0.08345445245504379,
-0.17319531738758087,
0.04815686121582985,
-0.16809402406215668,
0.24822765588760376,
-0.11705023795366287,
0.27781274914741516,
-0.21461808681488037,
-0.10686880350112915,
0.2266497015953064,
-0.02058599330484867,
-0.20554347336292267,
0.3036869466304779,
0.13549889624118805,
0.19600337743759155,
0.08895806968212128,
-0.21806465089321136,
0.09380045533180237,
-0.0232833344489336,
0.28131139278411865,
-0.10416127741336823,
-0.083988718688488,
-0.2286713570356369,
-0.002143619116395712,
-0.006188349332660437,
-0.11869099736213684,
-0.04273408278822899,
0.12053424119949341,
0.031535014510154724,
-0.15315838158130646,
-0.16602596640586853,
-0.10143314301967621,
0.06656742095947266,
-0.06497950106859207,
0.08878494054079056,
-0.05945999175310135,
0.1965521275997162,
-0.21573513746261597,
0.06468123942613602,
0.0704951286315918,
0.057131510227918625,
0.19633325934410095,
0.1770772784948349,
0.179401233792305,
0.11335389316082001,
-0.15895047783851624,
-0.11648702621459961,
0.08999381214380264,
-0.07777471840381622,
-0.2184184491634369,
-0.19930116832256317,
0.042252976447343826,
0.031851861625909805,
0.07109924405813217,
0.14763563871383667,
-0.2669350802898407,
0.00724001182243228,
-0.02246975339949131,
0.14597854018211365,
0.2803495228290558,
0.14013275504112244,
-0.09673842042684555,
0.11658012121915817,
0.10553330928087234,
0.16748319566249847,
-0.022220656275749207,
0.10737783461809158,
-0.16446298360824585,
-0.1240101307630539,
0.03362911939620972,
-0.13301891088485718,
-0.3121975064277649,
-0.053465861827135086,
0.07618063688278198,
0.08828400820493698,
0.17983606457710266,
-0.11013621091842651,
-0.21564705669879913,
-0.12634184956550598,
0.05746905505657196,
-0.33411407470703125,
0.19480015337467194,
0.2695324420928955,
0.06075906753540039,
0.28170469403266907,
-0.24342958629131317,
0.1649821251630783,
-0.133228600025177,
-0.10416989028453827,
-0.1682935506105423,
0.3052189350128174,
0.18956269323825836,
-0.18387560546398163,
0.3889734148979187,
-0.08161702007055283,
-0.06021088734269142,
-0.2019547075033188,
-0.29364582896232605,
-0.12465840578079224,
-0.23529931902885437,
-0.3370922803878784,
-0.05314623564481735,
0.3461168706417084,
0.21949176490306854,
0.13788054883480072,
-0.20888306200504303,
-0.01186487264931202,
0.189607635140419,
0.2412405163049698,
-0.03257974982261658,
0.3082810640335083,
-0.08264604955911636,
0.07529410719871521,
-0.1969199776649475,
0.2540963888168335,
0.04345737025141716,
-0.09666360169649124,
-0.1370365172624588,
-0.034089989960193634,
0.13338442146778107,
0.04644696041941643,
0.205068901181221,
-0.07505152374505997,
-0.1649692952632904,
-0.12048223614692688,
0.021671513095498085,
-0.0800701156258583,
0.14273591339588165,
0.1463271528482437,
0.2755904197692871,
-0.018038729205727577,
0.05425666272640228,
0.002139090560376644,
0.02612823247909546,
-0.040715351700782776,
0.3033716082572937,
0.03963927924633026,
0.06500685960054398,
0.11602748930454254,
-0.23692011833190918,
-0.08109817653894424,
0.023599442094564438,
0.04569999873638153,
-0.08658064156770706,
0.2095794975757599,
-0.16893357038497925,
0.13936318457126617,
0.0010463193757459521,
-0.11145109683275223,
-0.05228622630238533,
0.08904818445444107,
-0.17652752995491028,
-0.07858863472938538,
0.12844796478748322,
0.23445506393909454,
-0.1347820907831192,
0.2816661298274994,
-0.22752907872200012,
-0.13182297348976135,
-0.11343025416135788,
-0.3223499059677124,
-0.13043908774852753,
-0.002995011629536748,
0.23777484893798828,
0.011326494626700878,
-0.005281809717416763,
-0.049216851592063904,
-0.26969727873802185,
0.1339404135942459,
-0.07929203659296036,
0.16285188496112823,
-0.3632679581642151,
0.023928651586174965,
-0.06456129997968674,
0.14366011321544647,
-0.2073213756084442,
-0.20854774117469788,
-0.09681542217731476,
0.3162115514278412,
0.30444255471229553,
0.2802910804748535,
0.06083058565855026,
0.1419798731803894,
0.0360158309340477,
0.07520349323749542,
0.10237474739551544,
0.010580283589661121,
-0.19573019444942474,
0.03243869170546532,
0.10915083438158035,
-0.22730427980422974,
0.1856132596731186,
0.052001819014549255,
-0.2411651611328125,
0.18174569308757782,
0.25268813967704773,
0.20804399251937866,
-0.3006608486175537,
0.11908664554357529,
-0.03660855442285538,
-0.08482139557600021,
0.1424371600151062,
-0.12366018444299698,
0.25616371631622314,
0.02703258767724037,
-0.2692174017429352,
0.28966769576072693,
-0.0071997023187577724,
-0.2564072906970978,
-0.09053022414445877,
0.184352308511734,
-0.0583609938621521,
-0.0015188424149528146,
0.1794520914554596,
-0.019145581871271133,
-0.31329914927482605,
0.3138468265533447,
0.2130366712808609,
0.21814005076885223,
0.0839153304696083,
0.029811188578605652,
-0.1773013025522232,
-0.09977322071790695,
0.07228708267211914,
0.1995287388563156,
0.1816694140434265,
0.1811235249042511,
0.05870438367128372,
0.1119682565331459,
0.1478167027235031,
-0.14947272837162018,
0.16442862153053284,
0.04062141850590706,
-0.11993400752544403,
0.3051808178424835,
0.03618069365620613,
-0.022617483511567116,
0.28109052777290344,
0.005215495824813843,
-0.16993728280067444,
0.07614172250032425,
0.0086143733933568,
-0.1846090406179428,
-0.32701221108436584,
0.18362191319465637,
-0.3556993901729584,
0.27621254324913025,
-0.33517053723335266,
-0.3450557589530945,
-0.07867971062660217,
0.06736384332180023,
0.2260321080684662,
-0.15292097628116608,
0.2920672595500946,
0.11861176043748856,
0.27920791506767273,
0.4040137231349945,
0.38949140906333923,
-0.2210533320903778,
-0.02814650349318981,
0.20479123294353485,
-0.043341077864170074,
0.1558520346879959,
0.24557730555534363,
0.2139734923839569,
0.0734747052192688,
0.11310325562953949,
0.21868403255939484,
0.02589215338230133,
0.134073868393898,
-0.0980733186006546,
0.1954440474510193,
0.05728260427713394,
0.008112290874123573,
0.3749156892299652,
0.06210249289870262,
-0.19467276334762573,
-0.16828501224517822,
0.29697132110595703,
0.1610053926706314,
-0.2799791693687439,
-0.073692187666893,
0.20969629287719727,
-0.11677248775959015,
-0.20937146246433258,
-0.1001301258802414,
-0.03429445996880531,
0.17908284068107605,
0.13201291859149933,
0.014021567068994045,
-0.019506584852933884,
-0.14893986284732819,
-0.13845159113407135,
0.18586209416389465,
0.3025311231613159,
-0.12285914272069931,
0.11575806140899658,
-0.19260795414447784,
-0.0013846645597368479,
-0.11063715815544128,
0.017079893499612808,
-0.23700229823589325,
-0.004472251515835524,
0.34342724084854126,
-0.13895177841186523,
0.1689767986536026,
0.17983999848365784,
0.14319096505641937,
0.13624566793441772,
-0.15417161583900452,
-0.026351917535066605,
-0.05511439964175224,
0.18306845426559448,
0.2338833212852478,
0.04616880044341087,
0.06214344501495361,
-0.08041873574256897,
0.05458879470825195,
-0.1949140578508377,
0.32378458976745605,
0.059806205332279205,
0.13143330812454224,
-0.12178967148065567,
0.1583726704120636,
0.0023191117215901613,
-0.06271645426750183,
0.12533938884735107,
-0.11743878573179245,
-0.2723903954029083,
0.16155187785625458,
-0.1217724084854126,
0.1569497138261795,
0.14569690823554993,
-0.026199348270893097,
-0.13977497816085815,
0.07655869424343109,
0.1278717815876007,
0.29619330167770386,
0.063528873026371,
-0.26418083906173706,
0.20937958359718323,
-0.13015227019786835,
0.04352899640798569,
-0.058937184512615204,
-0.1258729249238968,
0.1857459396123886,
0.06392980366945267,
-0.26069068908691406,
-0.11340099573135376,
-0.14209924638271332,
-0.23187130689620972,
-0.13555492460727692,
-0.2801777422428131,
-0.22848060727119446,
-0.250899076461792,
-0.04938627406954765,
-0.13739433884620667,
0.013259373605251312,
0.0784425362944603,
-0.15772287547588348,
-0.08849219232797623,
-0.23408906161785126,
0.09849286824464798,
0.24845381081104279,
0.12197109311819077,
-0.171489417552948,
-0.10645969957113266,
-0.1039946898818016,
-0.24430270493030548,
0.1264035999774933,
0.013344350270926952,
0.055215392261743546,
0.15272502601146698,
-0.20014198124408722,
-0.011956105940043926,
-0.02023874595761299,
-0.32189688086509705,
0.011031746864318848,
-0.013112633489072323,
-0.3251175880432129,
-0.030694561079144478,
0.3016529679298401,
0.14281469583511353,
-0.17047010362148285,
-0.27139168977737427,
0.2519954442977905,
-0.1753131002187729,
-0.1984250247478485,
-0.04255655035376549,
-0.06237153336405754,
0.31723496317863464,
-0.08336766064167023,
-0.16761159896850586,
-0.05311479791998863,
-0.06979767233133316,
0.08457048237323761,
0.12428134679794312,
-0.004317617975175381,
-0.14656047523021698,
0.030974045395851135,
-0.01597585156559944,
-0.07013807445764542,
0.028128869831562042,
-0.07851624488830566,
-0.06746140122413635,
0.15091826021671295,
0.07900532335042953,
-0.2623336911201477,
-0.02375338040292263,
-0.23106196522712708,
-0.12328242510557175,
0.20725871622562408,
0.04137369617819786,
0.19188597798347473,
-0.22234958410263062,
0.05308191478252411,
0.1880275011062622,
0.1131199523806572,
0.1375633031129837,
0.07851150631904602,
-0.13388805091381073,
-0.14869794249534607,
-0.06008739396929741,
-0.3498493731021881,
-0.10839153081178665,
-0.08790092915296555,
0.12059473991394043,
0.22551122307777405,
-0.013889223337173462,
-0.3097965717315674,
0.1396072506904602,
-0.023304520174860954,
0.03256578743457794,
-0.0010352210374549031,
-0.05181875452399254,
-0.16938748955726624,
0.1052297055721283,
0.24872146546840668,
-0.2707376480102539,
-0.22401201725006104,
0.00425267918035388,
0.03114563785493374,
-0.10113447159528732,
0.04840463027358055,
0.06451692432165146,
0.22178052365779877,
-0.09919193387031555,
0.10262729227542877,
0.19612114131450653,
0.1614934355020523,
-0.12400545924901962,
0.255530446767807,
-0.025353530421853065,
-0.082553431391716,
0.25134098529815674,
0.22051586210727692,
0.09919530153274536,
-0.1331799030303955,
-0.06624646484851837,
0.06584130227565765,
-0.11012031137943268,
0.2574937045574188,
-0.046097882091999054,
0.2018507421016693,
-0.16825473308563232,
-0.07550685852766037,
-0.14016760885715485,
0.11481937766075134,
-0.07126185297966003,
0.06423097103834152,
-0.20679454505443573,
0.2885511815547943,
-0.16244691610336304,
0.06526916474103928,
-0.1024199053645134,
-0.29786908626556396,
-0.0023895741906017065,
-0.21329259872436523,
0.1070343479514122,
0.19454853236675262,
-0.07341628521680832,
-0.031045475974678993,
-9.948811566573568e-06,
0.26411139965057373,
-0.24705025553703308,
-0.06856264919042587,
-0.09669085592031479,
-0.2693536579608917,
0.16070982813835144,
0.023633817210793495,
-0.14561115205287933,
0.10147698223590851,
0.13927526772022247,
-0.15636618435382843,
-0.15143419802188873,
0.013412905856966972,
-0.08273351937532425,
-0.03606695681810379,
0.12574489414691925,
0.07849791646003723,
-0.13743452727794647,
-0.15096811950206757,
-0.2598040699958801,
-0.1302400827407837,
0.1982302963733673,
0.12748569250106812,
-0.10639887303113937,
-0.3096464276313782,
0.1296808123588562,
-0.004082728177309036,
0.03576194867491722,
0.17887839674949646,
0.19689548015594482,
-0.19962191581726074,
0.13367408514022827,
0.2648825943470001,
0.09162117540836334,
0.12267301231622696,
0.12342959642410278,
-0.059865519404411316,
0.21398146450519562,
-0.002394043607637286,
0.16359928250312805,
0.12426893413066864,
-0.43988853693008423,
0.022118283435702324,
-0.10905224829912186,
0.16355465352535248,
0.02154681459069252,
0.2673575282096863,
0.19027256965637207,
-0.06962403655052185,
0.16435867547988892,
0.2676287293434143,
-0.04408620670437813,
0.21293027698993683,
-0.20961607992649078,
-0.0876452848315239,
-0.0771079957485199,
0.16154640913009644,
0.023845456540584564,
-0.12416442483663559,
-0.22562028467655182,
0.2621460556983948,
-0.18235190212726593,
0.06939760595560074,
-0.09579183161258698,
-0.09414776414632797,
-0.2505352795124054,
-0.08132355660200119,
0.16858072578907013,
-0.2880610525608063,
0.07905127108097076,
0.30804243683815,
0.18825678527355194,
-0.19517824053764343,
-0.3047003448009491,
-0.1468881070613861,
0.048445895314216614,
-0.12960417568683624,
0.18576852977275848,
-0.06367151439189911,
0.2552587687969208,
0.10068200528621674,
0.08817487955093384,
0.16540685296058655,
-0.24327632784843445,
-0.08760786801576614,
-0.10799268633127213,
-0.07003087550401688,
-0.20100422203540802,
-0.19775651395320892,
0.05346912145614624,
0.14782099425792694,
-0.16958902776241302,
-0.24803191423416138,
0.18157586455345154,
-0.08926617354154587,
-0.3099668323993683,
-0.15073633193969727,
-0.29832950234413147,
0.2606218159198761,
-0.12001995742321014,
-0.052864495664834976,
0.009182442910969257,
0.03443988412618637,
-0.09103516489267349,
-0.1283186972141266,
0.1868777722120285,
0.01612251251935959,
-0.1368921399116516,
-0.07963652908802032,
0.21344543993473053,
-0.08725763857364655,
0.06863973289728165,
-0.05687130242586136,
-0.14572760462760925,
0.07712597399950027,
0.07779386639595032,
0.06613851338624954,
0.19670437276363373,
-0.11840907484292984,
0.03837739676237106,
-0.25356635451316833,
0.0786566287279129,
-0.24391916394233704,
-0.27312222123146057,
0.2643890380859375,
0.1893308013677597,
0.17994868755340576,
-0.030495507642626762,
0.1565694361925125,
-0.07507891952991486,
-0.08411986380815506,
0.04859686642885208,
0.18842703104019165,
0.11978359520435333,
-0.2303798794746399,
-0.11407763510942459,
-0.11329185962677002,
-0.16383680701255798,
-0.04526589438319206,
-0.15662109851837158,
-0.030990876257419586,
0.10440453141927719,
0.14327625930309296,
-0.07058606296777725,
-0.20764970779418945,
-0.19652491807937622,
0.248994380235672,
-0.08441388607025146,
-0.35074734687805176,
-0.16254159808158875,
0.09366384148597717,
-0.097779281437397,
-0.16139639914035797,
-0.036448802798986435,
0.016285613179206848,
-0.2624734044075012,
-0.14936766028404236,
-0.1837487667798996,
-0.2501508593559265,
0.15222565829753876,
0.03383927792310715,
-0.05271637439727783,
-0.23984096944332123,
0.16194622218608856,
0.20543506741523743,
0.03198370710015297,
-0.014953105710446835,
-0.039483025670051575,
0.0012707595014944673,
-0.07228201627731323,
-0.055132996290922165,
-0.015064635314047337,
-0.17852964997291565,
-0.14714007079601288,
0.22834423184394836,
0.013261686079204082,
0.1427595466375351,
-0.3897758722305298,
0.32246947288513184,
0.1765366643667221,
0.15860967338085175,
-0.3726934492588043,
-0.009314211085438728,
-0.31658869981765747,
-0.003013633657246828,
0.2927020192146301,
-0.08538633584976196,
0.3032863736152649,
0.10989101976156235,
-0.3116340637207031,
-0.11296793818473816,
0.15135088562965393,
0.18251527845859528,
-0.22898340225219727,
-0.10554806143045425,
-0.17449578642845154,
-0.23680035769939423,
-0.16803649067878723,
0.1855301707983017,
-0.13610000908374786,
0.017657078802585602,
-0.19237585365772247,
0.1526627540588379,
-0.10457742214202881,
-0.09058165550231934,
-0.28212425112724304,
-0.15447281301021576,
-0.15708164870738983,
0.014399245381355286,
0.10372471809387207,
-0.1807640790939331,
-0.232509583234787,
-0.18268468976020813,
-0.20831932127475739,
-0.13869021832942963,
-0.09928768873214722,
0.22675016522407532,
-0.0006908230134285986,
-0.15852123498916626,
-0.32579806447029114,
-0.1672971397638321,
0.3751375377178192,
-0.05055497586727142,
0.1897384226322174,
0.0957312285900116,
-0.27818596363067627,
0.19731833040714264,
0.19818519055843353,
-0.26157695055007935,
-0.010280965827405453,
-0.2778266668319702,
0.2387174814939499,
-0.06819995492696762,
0.1565047800540924,
-0.2674158215522766,
0.13395735621452332,
0.08293706923723221,
-0.12035371363162994,
-0.16065604984760284,
-0.4252624809741974,
-0.07877159863710403,
-0.04878921061754227,
0.20204778015613556,
0.041376642882823944,
0.2538178563117981,
0.035312969237565994,
-0.02151169255375862,
-0.35390132665634155,
-0.011038676835596561,
0.22357600927352905,
-0.08944711834192276,
0.03499970585107803,
-0.21281929314136505,
0.051474250853061676,
-0.1738974153995514,
0.25229883193969727,
-0.26622918248176575,
0.037330228835344315,
-0.2107526957988739,
-0.21420122683048248,
0.1253470629453659,
-0.13248400390148163,
0.008831898681819439,
0.10695387423038483,
0.23680059611797333,
-0.15362302958965302,
0.3999318480491638,
-0.050127558410167694,
0.14977197349071503,
0.20984132587909698,
0.05292687937617302,
0.239655539393425,
0.25485584139823914,
-0.3350410759449005,
-0.062123171985149384,
-0.0987289547920227,
0.12836654484272003,
0.1421777904033661,
-0.08765246719121933,
0.15030714869499207,
-0.13728664815425873,
0.40703994035720825,
0.22068831324577332,
0.06871389597654343,
0.36539995670318604,
0.29057827591896057,
0.0967680960893631,
0.004024329595267773,
-0.11003928631544113,
0.19634613394737244,
0.1573472023010254,
0.2185438871383667,
0.041148070245981216,
0.14308863878250122,
-0.01456521451473236,
-0.09849979728460312,
0.058579977601766586,
-0.13788896799087524,
0.095289446413517,
0.2902604639530182,
-0.2254301756620407,
0.16657719016075134,
0.3536885380744934,
-0.13833087682724,
0.26651620864868164,
-0.23749224841594696,
-0.13211452960968018,
0.26793423295021057,
0.2521168887615204,
0.24389666318893433,
-0.06500083208084106,
0.26329585909843445,
-0.11879804730415344,
-0.0643293708562851,
0.05652002990245819,
0.15714222192764282,
-0.08846680819988251,
0.07868009805679321,
-0.15483225882053375,
-0.07266025245189667,
-0.07040764391422272,
0.3511000871658325,
0.0768478661775589,
-0.1528061032295227,
0.2130601704120636,
-0.1966828852891922,
-0.19064004719257355,
0.19617588818073273,
-0.19087432324886322,
-0.1560099869966507,
-0.20344513654708862,
0.15239039063453674,
-0.05429413914680481,
0.20729705691337585,
-0.22450752556324005,
0.12844395637512207,
0.17309395968914032,
0.0036809637676924467,
0.26192784309387207,
0.07125180214643478,
0.04306582733988762,
0.20238623023033142,
-0.07178182154893875,
-0.16404297947883606,
-0.08755114674568176,
-0.034022536128759384,
-0.233853280544281,
0.04221989959478378,
0.2534430921077728,
-0.08486609160900116,
0.10113630443811417,
0.2816171944141388,
-0.025383535772562027,
0.20863130688667297,
0.24114690721035004,
-0.28912752866744995,
0.03382748365402222,
-0.10152478516101837,
-0.12760120630264282,
-0.25869134068489075,
0.22248761355876923,
-0.08112166076898575,
0.02331494726240635,
0.24713127315044403,
0.20993497967720032,
0.024789994582533836,
-0.07978876680135727,
0.2713365852832794,
-0.21708130836486816,
-0.1735026091337204,
0.24038949608802795,
0.05143013969063759,
-0.07882649451494217,
0.024428099393844604,
0.06363670527935028,
0.008027415722608566,
-0.14240963757038116,
0.10910821706056595,
0.02526658959686756,
0.11815085262060165,
-0.15223796665668488,
-0.041685935109853745,
0.13643497228622437,
-0.2640838027000427,
-0.31499019265174866,
0.32215237617492676,
0.03450450673699379,
-0.14387497305870056,
0.042284637689590454,
-0.05106305703520775,
-0.05063726007938385,
0.11795512586832047,
0.004780198447406292,
-0.021643906831741333,
-0.056197281926870346,
-0.19353032112121582,
0.16213728487491608,
-0.11142223328351974,
-0.09871997684240341,
0.04868500679731369,
0.12580104172229767,
-0.21365243196487427,
0.11733467131853104,
0.09539573639631271,
0.3401912450790405,
-0.07914169877767563,
-0.04787207394838333,
-0.12063930928707123,
0.17252343893051147,
0.10317661613225937,
-0.21032686531543732,
-0.08783601224422455,
0.010121193714439869,
0.02066725865006447,
0.13639600574970245,
0.18125514686107635,
-0.127854123711586,
-0.2484215348958969,
-0.08304403722286224,
-0.3791668713092804,
-0.0260678231716156,
-0.10979042947292328,
-0.08766525238752365,
-0.037623196840286255,
0.3649898171424866,
-0.1697807013988495,
0.19622159004211426,
-0.1659122258424759,
-0.1766447275876999,
0.18645143508911133,
-0.13225650787353516,
-0.1131531149148941,
0.25243449211120605,
-0.27616414427757263,
-0.015581144019961357,
-0.13393522799015045,
-0.30084308981895447,
0.17023608088493347,
-0.013490363024175167,
0.003643321804702282,
-0.040533483028411865,
0.29481521248817444,
-0.0015810801414772868,
-0.21479955315589905,
-0.06138540431857109,
-0.00797935388982296,
0.04066353291273117,
-0.18617317080497742,
-0.24806442856788635,
-0.15398462116718292,
0.12283274531364441,
0.021389728412032127,
-0.064748115837574,
0.15762150287628174,
-0.15298618376255035,
0.07022201269865036,
-0.21974729001522064,
-0.01367765013128519,
-0.15772302448749542,
0.03535313531756401,
0.2750886082649231,
0.08722822368144989,
-0.25061336159706116,
0.016152463853359222,
-0.16515274345874786,
0.2079722285270691,
0.08563648909330368,
0.07984185218811035,
0.22183915972709656,
0.11881762742996216,
-0.03141406551003456,
-0.0627981647849083,
-0.16103552281856537,
-0.06015603616833687,
-0.07077537477016449,
-0.1750403493642807,
-0.0215686596930027,
0.2826661765575409,
-0.24414630234241486,
-0.1953863799571991,
-0.19507715106010437,
-0.005876705050468445,
0.129313662648201,
0.2392352670431137,
-0.10495689511299133,
-0.22508971393108368,
0.2061469405889511,
0.062210142612457275,
-0.04444671422243118,
0.10793723165988922,
-0.1039876714348793,
0.03016737848520279,
-0.25678783655166626,
-0.24506768584251404,
0.0672227069735527,
-0.18554283678531647,
-0.23284709453582764,
-0.021546578034758568,
-0.15821939706802368,
0.16236864030361176,
0.1938154101371765,
0.12602274119853973,
-0.030204616487026215,
-0.3220895826816559,
0.2704727351665497,
-0.13772627711296082,
-0.04751404747366905,
-0.20188595354557037,
0.03666229918599129,
-0.15585708618164062,
-0.10744278877973557,
-0.17165234684944153,
0.11430118978023529,
-0.019139885902404785,
0.06323353201150894,
-0.3240148425102234,
-0.18777574598789215,
-0.048159707337617874,
-0.1379850208759308,
-0.2612200081348419,
0.06490219384431839,
-0.2398817390203476,
-0.15709975361824036,
-0.13919883966445923,
-0.3410356938838959,
-0.20061874389648438,
-0.14646905660629272,
-0.16921314597129822,
0.07877109199762344,
0.03263167291879654,
-0.21970364451408386,
0.22957013547420502,
0.08423227071762085,
-0.1471255123615265,
-0.14079801738262177,
0.03595230355858803,
0.192439466714859,
0.07922481000423431,
-0.11490058898925781,
0.2312994748353958,
0.3726220726966858,
-0.27955713868141174,
0.04736703261733055,
0.11761927604675293,
-0.05850273743271828,
-0.09226930886507034,
0.1142565980553627,
-0.0921279713511467,
-0.2662423849105835,
0.0614236555993557,
-0.09285788983106613,
0.10740409046411514,
0.02322429232299328,
0.23101025819778442,
-0.0017614621901884675,
-0.080596424639225,
0.2769696116447449,
-0.06827523559331894,
-0.0783054307103157,
-0.019311483949422836,
0.36435991525650024,
-0.12710034847259521,
-0.17870938777923584,
0.1311872899532318,
-0.09422144293785095,
-0.07200990617275238,
0.09968217462301254,
-0.2546548545360565,
0.18259690701961517,
-0.19525064527988434,
-0.06399452686309814,
0.12421052157878876,
-0.23425352573394775,
0.2399885207414627,
0.1288011521100998,
-0.19562792778015137,
0.0303927194327116,
-0.0026927900034934282,
-0.2788930833339691,
-0.10659809410572052,
-0.11435873061418533,
-0.07283509522676468,
-0.014313317835330963,
0.05380748584866524,
0.12376219034194946,
0.2429513782262802,
-0.2935594916343689,
0.013865997083485126,
0.22594350576400757,
-0.06856373697519302,
0.186506450176239,
0.24462036788463593,
-0.02898106351494789,
-0.21845266222953796,
0.03193027153611183,
-0.08494661003351212,
-0.2665373980998993,
-0.2497628629207611,
-0.05261366069316864,
-0.37049588561058044,
-0.027304157614707947,
0.1930430829524994,
-0.24067379534244537,
-0.23694176971912384,
0.056043729186058044,
-0.15454107522964478,
0.14113853871822357,
0.12435304373502731,
-0.10408513247966766,
-0.03274991735816002,
0.024733394384384155,
0.035508882254362106,
-0.3536398112773895,
0.036027077585458755,
0.1443387269973755,
0.12735706567764282,
-0.12672728300094604,
0.25012892484664917,
0.20322255790233612,
0.260734885931015,
0.14449186623096466,
-0.24769975244998932,
-0.26979944109916687,
0.23300962150096893,
-0.21108582615852356,
0.19983625411987305,
0.08705552667379379,
0.18869084119796753,
0.18091648817062378,
-0.12936313450336456,
-0.1038191020488739,
-0.11878842860460281,
-0.1248883306980133,
-0.0880148708820343,
0.0137700280174613,
-0.012660342268645763,
0.18478642404079437,
0.24098365008831024,
-0.24705640971660614,
-0.09422101825475693,
0.08474593609571457,
0.00822513923048973,
0.057599954307079315,
-0.2531302869319916,
0.18867766857147217,
0.2567629814147949,
0.3375507891178131,
0.09296871721744537,
-0.038881637156009674,
0.3257332444190979,
0.1257385015487671,
-0.13012492656707764,
0.21696779131889343,
0.3264082074165344,
-0.13984273374080658,
0.08925621211528778,
0.3436042070388794,
0.32913991808891296,
0.26598477363586426,
-0.12609422206878662,
0.27549269795417786,
-0.20630685985088348,
0.20042483508586884,
0.2083347886800766,
0.040201157331466675,
0.16259893774986267,
-0.17425289750099182,
0.0011318230535835028,
-0.07719060778617859,
-0.038646746426820755,
-0.007092123851180077,
0.2798236608505249,
0.28744447231292725,
-0.14550766348838806,
-0.05790681019425392,
-0.12633340060710907,
-0.061946287751197815,
0.17180894315242767,
-0.14032621681690216,
-0.16560666263103485,
-0.1351754367351532,
0.21164007484912872,
0.13639983534812927,
-0.10897906869649887,
-0.09890314936637878,
-0.2179529070854187,
-0.3055373728275299,
0.22907419502735138,
-0.055976517498493195,
0.08619251102209091,
-0.024547869339585304,
0.08747944235801697,
0.06913420557975769,
0.015109010972082615,
0.29560208320617676,
-0.11546823382377625,
0.23331530392169952,
0.33689185976982117,
0.39111199975013733,
0.013727590441703796,
-0.08789556473493576,
0.14474856853485107,
-0.031837377697229385,
-0.11111685633659363,
0.19269131124019623,
-0.07772062718868256,
0.1487075835466385,
0.28697773814201355,
0.1672174632549286,
-0.07684482634067535,
-0.026544425636529922,
0.07783550769090652,
0.18811115622520447,
0.0631989985704422,
0.2007441371679306,
-0.23548398911952972,
-0.16716772317886353,
0.11398028582334518,
0.17465583980083466,
0.31139636039733887,
-0.24222026765346527,
0.01565815880894661,
0.21493422985076904,
0.017643500119447708,
0.155233234167099,
0.0623382106423378,
0.09538669139146805,
0.03999742493033409,
0.10298696905374527,
0.2726951837539673,
-0.04796982556581497,
0.2238321602344513,
-0.09858597815036774,
-0.1004704013466835,
0.009298404678702354,
-0.11330661922693253,
0.05102820321917534,
0.016925306990742683,
-0.17733995616436005,
-0.006760081741958857,
0.20753566920757294,
0.30789366364479065,
-0.10095024108886719,
-0.21237587928771973,
0.2495502084493637,
-0.017545193433761597,
-0.1997147649526596,
-0.25175344944000244,
0.07737056165933609,
0.19150230288505554,
0.027847038581967354,
-0.2379334717988968,
-0.14646704494953156,
0.21010242402553558,
-0.26479512453079224,
0.22652028501033783,
-0.04706727713346481,
-0.2071598619222641,
-0.015091736800968647,
0.2913639545440674,
0.3047366738319397,
0.052836328744888306,
-0.1373448371887207,
0.07878777384757996,
-0.1530398279428482,
-0.06467676907777786,
-0.1085415855050087,
-0.3058848977088928,
-0.09876719862222672,
0.24544629454612732,
0.05367647483944893,
-0.24618728458881378,
-0.1298394501209259,
-0.06539449095726013,
-0.17629308998584747,
-0.12863126397132874,
-0.09876208752393723,
-0.07811911404132843,
0.011697042733430862,
-0.15490801632404327,
-0.14159563183784485,
-0.002666644984856248,
-0.2370571345090866,
0.015903769060969353,
-0.2854249179363251,
0.2724522650241852,
-0.15419284999370575,
0.2285972684621811,
0.061616797000169754,
0.15585556626319885,
-0.18310879170894623,
-0.018901150673627853,
-0.1185121089220047,
0.09112724661827087,
0.14312100410461426,
-0.07089561223983765,
-0.04221762716770172,
0.02149725705385208,
-0.2731879949569702,
-0.009080309420824051,
0.08224201202392578,
-0.047595057636499405,
-0.06153528392314911,
0.12812580168247223,
0.24138043820858002,
0.31818336248397827,
0.07317261397838593,
-0.05247507989406586,
0.2897474467754364,
0.056569695472717285,
0.11831239610910416,
0.23284204304218292,
-0.07950124889612198,
0.09503448009490967,
0.045441485941410065,
-0.14113083481788635,
-0.04894397035241127,
-0.008891170844435692,
0.13601793348789215,
-0.03948112204670906,
0.12339302897453308,
0.06800314784049988,
0.2549150288105011,
0.21056053042411804,
-0.21742503345012665,
-0.04946766793727875,
0.14320455491542816,
-0.003573913360014558,
-0.010324698872864246,
0.030147189274430275,
-0.039223793894052505,
0.060581207275390625,
-0.0792900025844574,
0.10718894749879837,
-0.1288551390171051,
-0.09658870100975037,
0.1705070286989212,
0.23169603943824768,
-0.011323335580527782,
-0.1555434763431549,
0.20646235346794128,
-0.027266472578048706,
0.019341204315423965,
-0.1875292956829071,
-0.08073081076145172,
-0.15909232199192047,
0.07913216948509216,
-0.24834738671779633,
-0.1511564999818802,
-0.037153370678424835,
0.13714933395385742,
-0.09955984354019165,
-0.11843112856149673,
-0.1707887351512909,
0.17717212438583374,
-0.23433934152126312,
-0.01122517604380846,
-0.2547602355480194,
0.16204321384429932,
0.0207534022629261,
-0.30161410570144653,
-0.22984711825847626,
0.23533663153648376,
-0.04675117880105972,
-0.04999731481075287,
-0.11567974090576172,
0.11459779739379883,
0.13676774501800537,
-0.06959505379199982,
0.2794919013977051,
0.034344471991062164,
-0.22736409306526184,
0.13849157094955444,
0.03485056757926941,
0.12073033303022385,
0.03663821518421173,
0.09978915005922318,
-0.22466453909873962,
0.1299566924571991,
0.03615204617381096,
0.2250627726316452,
-0.11548034101724625,
-0.20936261117458344,
-0.256958544254303,
0.24609002470970154,
-0.2446969896554947,
0.2557297348976135,
0.23057211935520172,
0.10441499203443527,
0.12911225855350494,
0.10888364911079407,
-0.03570912405848503,
-0.19423915445804596,
0.03791036084294319,
0.12170223891735077,
0.15492834150791168,
-0.07249037176370621,
0.09151692688465118,
0.0659680962562561,
-0.12458190321922302,
0.03403238207101822,
0.07121183723211288,
0.2745417356491089,
-0.20106978714466095,
-0.0459517203271389,
-0.09453649818897247,
-0.15287455916404724,
-0.09687490016222,
0.16609206795692444,
-0.09923125803470612,
-0.10192468017339706,
0.06697981059551239,
0.15839023888111115,
-0.06378178298473358,
-0.01687188446521759,
0.1824316382408142,
0.1070195883512497,
0.06125378981232643,
-0.13167715072631836,
0.08145570009946823,
0.022546276450157166,
0.029063066467642784,
0.11130036413669586,
0.0741717666387558,
-0.2782656252384186,
-0.07584300637245178,
0.01891310140490532,
-0.06377100199460983,
0.17194022238254547,
-0.3097168803215027,
0.076506108045578,
-0.12191947549581528,
0.14912262558937073,
-0.05263734981417656,
-0.23300661146640778,
0.02721777930855751,
0.11995247006416321,
-0.15126357972621918,
-0.2609708607196808,
-0.19493526220321655,
-0.23441168665885925,
-0.3686329424381256,
0.060631997883319855,
-0.10398562997579575,
-0.21503615379333496,
-0.25520825386047363,
-0.15826277434825897,
-0.21266856789588928,
0.16354072093963623,
0.014598867855966091,
-0.17945596575737,
-0.023101825267076492,
-0.11769739538431168,
0.24824221432209015,
-0.17118322849273682,
0.012283654883503914,
0.002116761403158307,
0.047398071736097336,
0.2076536864042282,
-0.18669235706329346,
-0.08165399730205536,
-0.12568627297878265,
0.028122026473283768,
-0.09292149543762207,
0.12557362020015717,
0.011398366652429104,
-0.2700919508934021,
-0.3068765103816986,
0.2201375514268875,
-0.18743079900741577,
0.07698218524456024,
0.232707217335701,
-0.05376210808753967,
0.12008647620677948,
0.2730306088924408,
0.11423852294683456,
-0.1723000705242157,
-0.01970749720931053,
-0.17811702191829681,
0.17951662838459015,
-0.057382453233003616,
-0.02483687549829483,
0.019248610362410545,
0.19161202013492584,
-0.19537366926670074,
-0.2593293786048889,
0.12204308807849884,
-0.17580263316631317,
0.28515973687171936,
-0.10996007919311523,
0.05383129417896271,
-0.1618027687072754,
0.045932721346616745,
-0.014659610576927662,
-0.04616690054535866,
0.009357906877994537,
0.39686545729637146,
0.0017673176480457187,
0.1575879603624344,
0.0027671330608427525,
0.06024249270558357,
0.1650005728006363,
0.09303504228591919,
0.1606793850660324,
0.04225288704037666,
0.17107121646404266,
0.24111543595790863,
-0.12604881823062897,
0.23547182977199554,
-0.19897088408470154,
0.18212909996509552,
0.09729836136102676,
0.0929451584815979,
0.301254004240036,
0.054123688489198685,
-0.10026639699935913,
0.011534045450389385,
0.08744270354509354,
-0.10500560700893402,
0.21442699432373047,
-0.2242574691772461,
-0.36961689591407776,
-0.33869436383247375,
0.024485647678375244,
0.057945702224969864,
-0.13566772639751434,
-0.12425322830677032,
-0.1483730524778366,
-0.20285211503505707,
-0.09551773220300674,
0.3119414150714874,
-0.25333350896835327,
0.23523171246051788,
0.2817974090576172,
-0.21174906194210052,
-0.013879632577300072,
-0.26444607973098755,
-0.2670469582080841,
-0.1230093389749527,
-0.03422844782471657,
-0.2732538878917694,
-0.19276884198188782,
0.17347711324691772,
0.16421326994895935,
0.05112617835402489,
0.006028767675161362,
0.028743676841259003,
-0.2598942816257477,
-0.31475362181663513,
0.05608265474438667,
0.1719655990600586,
-0.04098225757479668,
-0.3137669861316681,
-0.14620181918144226,
-0.05257321149110794,
-0.11428788304328918,
0.1688491404056549,
-0.2576153874397278,
0.3410038948059082,
-0.10685499012470245,
0.09918487817049026,
-0.06267040967941284,
-0.07733185589313507,
0.056447140872478485,
0.24571768939495087,
-0.21090155839920044,
0.1671365648508072,
0.08562816679477692,
-0.18332616984844208,
0.12408791482448578,
0.06981085240840912,
0.21525593101978302,
0.1777210682630539,
-0.1950552612543106,
-0.022063596174120903,
-0.15916964411735535,
-0.2572298049926758,
-0.1499582976102829,
